FANN_FLO_2.1
num_layers=4
learning_rate=0.700000
connection_rate=1.000000
network_type=0
learning_momentum=0.000000
training_algorithm=2
train_error_function=1
train_stop_function=0
cascade_output_change_fraction=0.010000
quickprop_decay=-0.000100
quickprop_mu=1.750000
rprop_increase_factor=1.200000
rprop_decrease_factor=0.500000
rprop_delta_min=0.000000
rprop_delta_max=50.000000
rprop_delta_zero=0.100000
cascade_output_stagnation_epochs=12
cascade_candidate_change_fraction=0.010000
cascade_candidate_stagnation_epochs=12
cascade_max_out_epochs=150
cascade_min_out_epochs=50
cascade_max_cand_epochs=150
cascade_min_cand_epochs=50
cascade_num_candidate_groups=2
bit_fail_limit=3.49999994039535522460e-01
cascade_candidate_limit=1.00000000000000000000e+03
cascade_weight_multiplier=4.00000005960464477540e-01
cascade_activation_functions_count=10
cascade_activation_functions=3 5 7 8 10 11 14 15 16 17 
cascade_activation_steepnesses_count=4
cascade_activation_steepnesses=2.50000000000000000000e-01 5.00000000000000000000e-01 7.50000000000000000000e-01 1.00000000000000000000e+00 
layer_sizes=19 61 41 10 
scale_included=0
neurons (num_inputs, activation_function, activation_steepness)=(0, 0, 0.00000000000000000000e+00) (0, 0, 0.00000000000000000000e+00) (0, 0, 0.00000000000000000000e+00) (0, 0, 0.00000000000000000000e+00) (0, 0, 0.00000000000000000000e+00) (0, 0, 0.00000000000000000000e+00) (0, 0, 0.00000000000000000000e+00) (0, 0, 0.00000000000000000000e+00) (0, 0, 0.00000000000000000000e+00) (0, 0, 0.00000000000000000000e+00) (0, 0, 0.00000000000000000000e+00) (0, 0, 0.00000000000000000000e+00) (0, 0, 0.00000000000000000000e+00) (0, 0, 0.00000000000000000000e+00) (0, 0, 0.00000000000000000000e+00) (0, 0, 0.00000000000000000000e+00) (0, 0, 0.00000000000000000000e+00) (0, 0, 0.00000000000000000000e+00) (0, 0, 0.00000000000000000000e+00) (19, 6, 5.00000000000000000000e-01) (19, 6, 5.00000000000000000000e-01) (19, 6, 5.00000000000000000000e-01) (19, 6, 5.00000000000000000000e-01) (19, 6, 5.00000000000000000000e-01) (19, 6, 5.00000000000000000000e-01) (19, 6, 5.00000000000000000000e-01) (19, 6, 5.00000000000000000000e-01) (19, 6, 5.00000000000000000000e-01) (19, 6, 5.00000000000000000000e-01) (19, 6, 5.00000000000000000000e-01) (19, 6, 5.00000000000000000000e-01) (19, 6, 5.00000000000000000000e-01) (19, 6, 5.00000000000000000000e-01) (19, 6, 5.00000000000000000000e-01) (19, 6, 5.00000000000000000000e-01) (19, 6, 5.00000000000000000000e-01) (19, 6, 5.00000000000000000000e-01) (19, 6, 5.00000000000000000000e-01) (19, 6, 5.00000000000000000000e-01) (19, 6, 5.00000000000000000000e-01) (19, 6, 5.00000000000000000000e-01) (19, 6, 5.00000000000000000000e-01) (19, 6, 5.00000000000000000000e-01) (19, 6, 5.00000000000000000000e-01) (19, 6, 5.00000000000000000000e-01) (19, 6, 5.00000000000000000000e-01) (19, 6, 5.00000000000000000000e-01) (19, 6, 5.00000000000000000000e-01) (19, 6, 5.00000000000000000000e-01) (19, 6, 5.00000000000000000000e-01) (19, 6, 5.00000000000000000000e-01) (19, 6, 5.00000000000000000000e-01) (19, 6, 5.00000000000000000000e-01) (19, 6, 5.00000000000000000000e-01) (19, 6, 5.00000000000000000000e-01) (19, 6, 5.00000000000000000000e-01) (19, 6, 5.00000000000000000000e-01) (19, 6, 5.00000000000000000000e-01) (19, 6, 5.00000000000000000000e-01) (19, 6, 5.00000000000000000000e-01) (19, 6, 5.00000000000000000000e-01) (19, 6, 5.00000000000000000000e-01) (19, 6, 5.00000000000000000000e-01) (19, 6, 5.00000000000000000000e-01) (19, 6, 5.00000000000000000000e-01) (19, 6, 5.00000000000000000000e-01) (19, 6, 5.00000000000000000000e-01) (19, 6, 5.00000000000000000000e-01) (19, 6, 5.00000000000000000000e-01) (19, 6, 5.00000000000000000000e-01) (19, 6, 5.00000000000000000000e-01) (19, 6, 5.00000000000000000000e-01) (19, 6, 5.00000000000000000000e-01) (19, 6, 5.00000000000000000000e-01) (19, 6, 5.00000000000000000000e-01) (19, 6, 5.00000000000000000000e-01) (19, 6, 5.00000000000000000000e-01) (19, 6, 5.00000000000000000000e-01) (19, 6, 5.00000000000000000000e-01) (0, 6, 0.00000000000000000000e+00) (61, 6, 5.00000000000000000000e-01) (61, 6, 5.00000000000000000000e-01) (61, 6, 5.00000000000000000000e-01) (61, 6, 5.00000000000000000000e-01) (61, 6, 5.00000000000000000000e-01) (61, 6, 5.00000000000000000000e-01) (61, 6, 5.00000000000000000000e-01) (61, 6, 5.00000000000000000000e-01) (61, 6, 5.00000000000000000000e-01) (61, 6, 5.00000000000000000000e-01) (61, 6, 5.00000000000000000000e-01) (61, 6, 5.00000000000000000000e-01) (61, 6, 5.00000000000000000000e-01) (61, 6, 5.00000000000000000000e-01) (61, 6, 5.00000000000000000000e-01) (61, 6, 5.00000000000000000000e-01) (61, 6, 5.00000000000000000000e-01) (61, 6, 5.00000000000000000000e-01) (61, 6, 5.00000000000000000000e-01) (61, 6, 5.00000000000000000000e-01) (61, 6, 5.00000000000000000000e-01) (61, 6, 5.00000000000000000000e-01) (61, 6, 5.00000000000000000000e-01) (61, 6, 5.00000000000000000000e-01) (61, 6, 5.00000000000000000000e-01) (61, 6, 5.00000000000000000000e-01) (61, 6, 5.00000000000000000000e-01) (61, 6, 5.00000000000000000000e-01) (61, 6, 5.00000000000000000000e-01) (61, 6, 5.00000000000000000000e-01) (61, 6, 5.00000000000000000000e-01) (61, 6, 5.00000000000000000000e-01) (61, 6, 5.00000000000000000000e-01) (61, 6, 5.00000000000000000000e-01) (61, 6, 5.00000000000000000000e-01) (61, 6, 5.00000000000000000000e-01) (61, 6, 5.00000000000000000000e-01) (61, 6, 5.00000000000000000000e-01) (61, 6, 5.00000000000000000000e-01) (61, 6, 5.00000000000000000000e-01) (0, 6, 0.00000000000000000000e+00) (41, 6, 5.00000000000000000000e-01) (41, 6, 5.00000000000000000000e-01) (41, 6, 5.00000000000000000000e-01) (41, 6, 5.00000000000000000000e-01) (41, 6, 5.00000000000000000000e-01) (41, 6, 5.00000000000000000000e-01) (41, 6, 5.00000000000000000000e-01) (41, 6, 5.00000000000000000000e-01) (41, 6, 5.00000000000000000000e-01) (0, 6, 0.00000000000000000000e+00) 
connections (connected_to_neuron, weight)=(0, -2.44732618331909179688e+00) (1, 2.05411300063133239746e-01) (2, 3.34160506725311279296e-01) (3, 7.59320799261331558228e-04) (4, -1.76322805881500244140e+00) (5, 3.44230175018310546875e-01) (6, 5.72474896907806396484e-01) (7, 4.14996743202209472656e-01) (8, -1.86455404758453369140e+00) (9, 3.73215794563293457032e+00) (10, 6.50009810924530029296e-01) (11, 6.00445270538330078125e-01) (12, 6.72952890396118164062e-01) (13, 1.06614837646484375000e+01) (14, 6.32827162742614746094e-01) (15, 1.23147141933441162110e+00) (16, 8.86070549488067626954e-01) (17, 5.94745492935180664062e+00) (18, 7.03608751296997070312e-01) (0, 3.59651595354080200196e-01) (1, 1.29240483045578002930e-01) (2, 8.50528299808502197266e-01) (3, -4.71204489469528198242e-01) (4, 3.91937009990215301514e-02) (5, -1.29843726754188537598e-01) (6, 1.10932159423828125000e+00) (7, -7.50694125890731811524e-02) (8, -1.64032444357872009278e-01) (9, 5.10692894458770751954e-02) (10, 3.21799479424953460694e-02) (11, 1.95524430274963378906e+00) (12, -1.64300501346588134766e-02) (13, -3.38681399822235107422e-01) (14, -1.88803330063819885254e-01) (15, 2.86868155002593994140e-01) (16, 2.19605579972267150878e-01) (17, -2.33241185545921325684e-01) (18, 1.82711705565452575684e-01) (0, 1.56749129295349121094e-01) (1, -4.85619790852069854736e-02) (2, 2.91614055633544921875e-01) (3, -4.57236059010028839112e-02) (4, 2.39953532814979553222e-01) (5, -2.40475744009017944336e-01) (6, 1.72305256128311157226e-01) (7, -1.51347026228904724122e-01) (8, 8.67190718650817871094e-01) (9, -6.93413568660616874694e-03) (10, -3.25491219758987426758e-01) (11, 6.64382651448249816894e-02) (12, 1.01994283497333526612e-01) (13, -6.56652569770812988282e-01) (14, -2.76685595512390136718e-01) (15, -4.75077331066131591796e-01) (16, -2.77925819158554077148e-01) (17, 1.33006262779235839844e+00) (18, -6.59251064062118530274e-02) (0, 5.51793038845062255860e-01) (1, 2.70413339138031005860e-01) (2, -1.78864300251007080078e-01) (3, -1.06538340449333190918e-01) (4, -9.81594145298004150390e-01) (5, -5.96127748489379882812e-01) (6, 5.84068536758422851562e-01) (7, -5.11883497238159179688e-01) (8, -1.26942679286003112792e-01) (9, 5.32456077635288238526e-02) (10, 2.70556598901748657226e-01) (11, -2.36357122659683227540e-01) (12, 1.31675124168395996094e-01) (13, 9.05262053012847900390e-01) (14, 1.28806263208389282226e-01) (15, 4.23994511365890502930e-01) (16, 2.74970501661300659180e-01) (17, 6.32589936256408691406e-01) (18, -3.14042061567306518554e-01) (0, 1.77224472165107727050e-01) (1, -1.24717324972152709960e-01) (2, 8.66170585155487060546e-01) (3, 2.98268049955368041992e-01) (4, -5.08344113826751708984e-01) (5, -8.13036486506462097168e-02) (6, 1.61266773939132690430e-01) (7, -2.73586869239807128906e-01) (8, -2.05579310655593872070e-01) (9, -5.98381221294403076172e-01) (10, 3.01151990890502929688e-01) (11, -2.89374709129333496094e-01) (12, -7.00749158859252929688e-01) (13, -1.22864469885826110840e-01) (14, -5.25448858737945556640e-01) (15, -2.18100428581237792968e-01) (16, 4.22778695821762084960e-01) (17, 3.42739447951316833496e-02) (18, -8.09043198823928833008e-02) (0, 5.66705405712127685546e-01) (1, -3.95111978054046630860e-01) (2, 3.71912151575088500976e-01) (3, 1.93417713046073913574e-01) (4, -9.69470962882041931152e-02) (5, 4.55972957611083984375e+00) (6, 1.06990671157836914062e+00) (7, -1.03684715926647186280e-01) (8, 1.55283629894256591796e-01) (9, -1.10949873924255371094e-01) (10, -7.12572515010833740234e-01) (11, -3.49181801080703735352e-01) (12, -1.43086090683937072754e-01) (13, -5.92962443828582763672e-01) (14, 1.99168348312377929688e+00) (15, -4.27693277597427368164e-01) (16, -8.90169143676757812500e-01) (17, -2.08462372422218322754e-01) (18, 2.35737040638923645020e-01) (0, 1.44199535250663757324e-01) (1, 9.78405997157096862792e-02) (2, 4.37308222055435180664e-01) (3, 1.86537876725196838378e-01) (4, -1.92742481827735900878e-01) (5, 2.21007719635963439942e-01) (6, 4.57605808973312377930e-01) (7, 4.16705876588821411132e-01) (8, -1.13901533186435699462e-01) (9, 1.49721158668398857116e-02) (10, 3.02750885486602783204e-01) (11, 5.18337488174438476562e-01) (12, -7.06615671515464782714e-02) (13, -1.34058260917663574218e+00) (14, -1.24897651374340057374e-01) (15, 4.48775291442871093750e-02) (16, 3.28017234802246093750e-01) (17, 2.98748910427093505860e-02) (18, 8.51799696683883666992e-02) (0, 2.33993217349052429200e-01) (1, -8.47425982356071472168e-02) (2, 4.57855969667434692382e-01) (3, -2.37116336822509765625e-01) (4, 3.54868918657302856446e-02) (5, 1.13572992384433746338e-01) (6, -8.63910973072052001954e-01) (7, 6.96965232491493225098e-02) (8, 3.68254482746124267578e-01) (9, -5.16194522380828857422e-01) (10, 9.71258953213691711426e-02) (11, 2.38543421030044555664e-01) (12, -8.36945593357086181640e-01) (13, -2.55404971539974212646e-02) (14, 8.12675356864929199218e-02) (15, -1.37475180625915527344e+00) (16, 5.09142756462097167968e-01) (17, 3.39711129665374755860e-01) (18, 4.64137703180313110352e-01) (0, -6.46013140678405761718e-01) (1, -7.59265482425689697266e-01) (2, 6.24518513679504394532e-01) (3, 8.25144201517105102540e-02) (4, -2.90018290281295776368e-01) (5, 1.41779437661170959472e-01) (6, -4.31282222270965576172e-02) (7, 7.74186968803405761718e-01) (8, -1.19925700128078460694e-01) (9, 5.14487206935882568360e-01) (10, 4.27037745714187622070e-01) (11, 4.58868175745010375976e-01) (12, 2.74254649877548217774e-01) (13, 8.18374276161193847656e-01) (14, 2.03803732991218566894e-01) (15, 9.60502982139587402344e-01) (16, 3.62761855125427246094e-01) (17, 3.72556030750274658204e-01) (18, 3.25000613927841186524e-01) (0, 4.99840784072875976562e+00) (1, 6.56710815429687500000e+00) (2, 1.50000000000000000000e+03) (3, 2.30071604251861572266e-01) (4, -1.87872022390365600586e-01) (5, 4.41755428910255432128e-02) (6, -6.17911040782928466796e-01) (7, -5.87179183959960937500e-01) (8, -6.19085609912872314454e-01) (9, -1.33092081546783447266e+00) (10, -1.38904929161071777344e+00) (11, -1.16805028915405273438e+00) (12, 1.07945775985717773438e+00) (13, 1.70839965343475341796e+00) (14, 1.11837911605834960938e+00) (15, 1.21541488170623779296e+00) (16, 1.04023432731628417968e+00) (17, 1.27044963836669921875e+00) (18, 1.38400173187255859375e+00) (0, -6.83607101440429687500e-01) (1, -5.58622062206268310546e-01) (2, -8.23995494842529296875e+00) (3, -6.11681699752807617188e-01) (4, -6.85516655445098876954e-01) (5, 4.30305385589599609375e+00) (6, -8.62045824527740478516e-01) (7, -5.85239529609680175782e-01) (8, 2.92887806892395019532e+00) (9, 1.17803728580474853516e+00) (10, 8.64151716232299804688e-01) (11, -3.15311551094055175782e-01) (12, 8.12060058116912841796e-01) (13, 1.38614356517791748046e+00) (14, -5.02679824829101562500e-01) (15, 1.05473339557647705078e+00) (16, 1.00446796417236328125e+00) (17, -8.86889517307281494140e-01) (18, 1.45585072040557861328e+00) (0, 1.83879569172859191894e-01) (1, 3.39614844322204589844e+00) (2, 3.37307512760162353516e-01) (3, 9.32270660996437072754e-02) (4, 6.34522724151611328125e+00) (5, 4.43631589412689208984e-01) (6, 2.26497456431388854980e-01) (7, -2.21209573745727539062e+00) (8, -1.96248278021812438964e-01) (9, 1.44953906536102294922e-01) (10, -9.54135954380035400390e-02) (11, 2.91750550270080566406e-01) (12, 1.76499187946319580078e-01) (13, -6.23204171657562255860e-01) (14, 4.25756126642227172852e-01) (15, 8.11010181903839111328e-01) (16, 5.88078260421752929688e+00) (17, 6.44958972930908203125e-01) (18, 5.05558192729949951172e-01) (0, -1.15830991417169570922e-02) (1, -9.28275138139724731446e-02) (2, 1.01879395544528961182e-01) (3, 2.82689789310097694396e-03) (4, 3.36813420057296752930e-01) (5, 5.09651452302932739258e-02) (6, 1.07843510806560516358e-01) (7, 8.07356461882591247558e-02) (8, 1.98815301060676574708e-01) (9, -6.18061348795890808106e-02) (10, 7.03757777810096740722e-02) (11, -1.92384961992502212524e-02) (12, -2.07683131098747253418e-01) (13, 1.51532804965972900390e+00) (14, -3.18165011703968048096e-02) (15, -1.15094259381294250488e-01) (16, 2.07887589931488037110e-01) (17, 5.21381385624408721924e-03) (18, -1.65749520063400268554e-01) (0, 2.20902943611145019532e+00) (1, 6.50585144758224487304e-02) (2, -4.82128471136093139648e-01) (3, -1.50000000000000000000e+03) (4, -7.57780015468597412110e-01) (5, -2.52103537321090698242e-01) (6, 1.96991443634033203125e+00) (7, -5.85329651832580566406e-01) (8, -7.41715252399444580078e-01) (9, -2.63758707046508789062e+00) (10, -6.13359641283750534058e-03) (11, 1.88088580965995788574e-01) (12, -3.30578327178955078125e+00) (13, -2.88906157016754150390e-01) (14, -3.28944057226181030274e-01) (15, -2.52213716506958007812e+00) (16, -5.57515978813171386718e-01) (17, -4.03856098651885986328e-01) (18, -2.41912364959716796875e+00) (0, -1.45356321334838867188e+00) (1, -8.69794487953186035156e-02) (2, 7.93505534529685974122e-02) (3, -2.65313293784856796264e-02) (4, -1.60494163632392883300e-01) (5, -6.95997551083564758300e-02) (6, 4.48657959699630737304e-01) (7, 2.14409783482551574708e-01) (8, -6.09254762530326843262e-02) (9, -1.76858544349670410156e+00) (10, 1.33180260658264160156e-01) (11, 9.21840146183967590332e-02) (12, 1.27175092697143554688e-01) (13, 3.98623764514923095704e-01) (14, 1.99848324060440063476e-01) (15, 7.33496904373168945312e-01) (16, 3.23951005935668945312e-01) (17, 6.84069573879241943360e-01) (18, 2.38787502050399780274e-01) (0, 4.70070630311965942382e-01) (1, 4.65120702981948852540e-01) (2, 5.78588604927062988282e-01) (3, 3.95549416542053222656e-01) (4, 2.42304384708404541016e-01) (5, 5.98012804985046386718e-01) (6, -1.10238775610923767090e-01) (7, -1.27347099781036376954e+00) (8, -2.58801996707916259766e-01) (9, -2.44084686040878295898e-01) (10, -5.03682158887386322022e-02) (11, -6.49507284164428710938e-01) (12, -4.31727081537246704102e-01) (13, -4.47019338607788085938e-02) (14, -2.44285136461257934570e-01) (15, 5.58350622653961181640e-01) (16, -7.38311856985092163086e-02) (17, 7.51033127307891845704e-01) (18, 2.11004391312599182128e-01) (0, 2.58320689201354980468e-01) (1, 5.38795351982116699218e-01) (2, -2.29946875572204589844e+00) (3, 3.18197399377822875976e-01) (4, -1.78730392456054687500e+00) (5, -2.52076592296361923218e-02) (6, -1.86653780937194824218e+00) (7, 7.53114521503448486328e-01) (8, 2.13134616613388061524e-01) (9, 3.47801595926284790040e-01) (10, 4.29582446813583374024e-01) (11, 8.64148521423339843750e+00) (12, 5.00148236751556396484e-01) (13, 7.81209897994995117188e+00) (14, 5.42408406734466552734e-01) (15, 7.13233661651611328125e+00) (16, 5.32526016235351562500e-01) (17, 7.88266718387603759766e-01) (18, 1.40955007076263427734e+00) (0, 2.82351553440093994140e-01) (1, 1.90462678670883178710e-01) (2, 2.05331757664680480958e-01) (3, -2.71428912878036499024e-01) (4, -7.08701670169830322266e-01) (5, 1.05342678725719451904e-01) (6, -1.09182834625244140625e+00) (7, -3.58017571270465850830e-02) (8, 1.15262567996978759766e-01) (9, 1.15660689771175384522e-01) (10, 1.58964172005653381348e-01) (11, -2.02537283301353454590e-01) (12, 2.19684392213821411132e-01) (13, 4.15663003921508789062e-01) (14, 2.09361135959625244140e-01) (15, -2.07450628280639648438e-01) (16, 3.57499599456787109375e-01) (17, 1.40088871121406555176e-01) (18, 1.70501247048377990722e-01) (0, 1.03787481784820556640e+00) (1, 6.06301009654998779296e-01) (2, 7.78661966323852539062e-01) (3, -8.83281290531158447266e-01) (4, 2.21678018569946289062e-01) (5, -4.42893475294113159180e-01) (6, -2.07214140892028808594e+00) (7, -6.70820832252502441406e-01) (8, -9.87361192703247070312e-01) (9, -3.80968339741230010986e-02) (10, -6.18377387523651123046e-01) (11, 1.37888183817267417908e-02) (12, 9.40207302570343017578e-01) (13, 2.33525013923645019532e+00) (14, 1.28061497211456298828e+00) (15, 2.97155380249023437500e-01) (16, -1.65709555149078369140e-01) (17, 7.75764465332031250000e-01) (18, 8.85869562625885009766e-02) (0, 4.52523756027221679688e+00) (1, -2.71644920110702514648e-01) (2, -7.50290870666503906250e-01) (3, 5.02101182937622070312e+00) (4, -3.66135269403457641602e-01) (5, -7.21053481101989746094e-01) (6, 2.70990204811096191406e+00) (7, -1.22506983578205108642e-01) (8, -5.97225666046142578125e-01) (9, -8.35134208202362060546e-01) (10, 5.30624806880950927734e-01) (11, 1.08039045333862304688e+00) (12, -9.63757276535034179688e-01) (13, 9.02488470077514648438e-01) (14, 9.38709139823913574218e-01) (15, -7.19714522361755371094e-01) (16, 6.57551348209381103516e-01) (17, 1.22022211551666259766e+00) (18, 1.67121934890747070312e+00) (0, 4.07463997602462768554e-01) (1, 1.31734657287597656250e+00) (2, 1.15871417522430419922e+00) (3, 1.36524677276611328125e-01) (4, 5.02557218074798583984e-01) (5, 4.23131322860717773438e+00) (6, 5.16816854476928710938e+00) (7, 6.97297394275665283204e-01) (8, 4.51224565505981445312e-01) (9, 1.60188391804695129394e-01) (10, -4.07157748937606811524e-01) (11, 4.63887333869934082032e-01) (12, 1.29555702209472656250e+00) (13, 3.86764228343963623046e-01) (14, -1.13715529441833496094e+00) (15, -8.04445073008537292480e-02) (16, -1.62439793348312377930e-02) (17, 5.10448038578033447266e-01) (18, 3.41791331768035888672e-01) (0, -1.90414750576019287110e+00) (1, 2.14283436536788940430e-01) (2, 1.84641122817993164062e-01) (3, 1.69865980744361877442e-01) (4, -6.11963272094726562500e-01) (5, 3.12934786081314086914e-01) (6, -3.11882227659225463868e-01) (7, 4.94632959365844726562e-01) (8, 1.49985827636718750000e+03) (9, 1.27553281784057617188e+01) (10, 4.44856762886047363282e-01) (11, 3.71919661760330200196e-01) (12, 4.48650658130645751954e-01) (13, 1.52039992809295654296e+00) (14, 1.09400473535060882568e-01) (15, 9.84351098537445068360e-01) (16, 5.50455391407012939454e-01) (17, 3.63146257400512695312e+00) (18, 1.73824891448020935058e-01) (0, 9.63604867458343505860e-01) (1, -1.74407529830932617188e+00) (2, 1.15617442131042480468e+00) (3, -6.54761850833892822266e-01) (4, 5.97617816925048828125e+00) (5, 5.55325709283351898194e-02) (6, 6.84133291244506835938e-01) (7, 3.74281466007232666016e-01) (8, 4.51315492391586303710e-01) (9, 2.72233068943023681640e-01) (10, -7.74169206619262695312e-01) (11, 5.27566552162170410156e-01) (12, 8.27822610735893249512e-02) (13, 1.23774886131286621094e+00) (14, 8.45153093338012695312e-01) (15, -2.79664576053619384766e-01) (16, 6.54037177562713623046e-01) (17, 8.80052074790000915528e-02) (18, 5.63633561134338378906e-01) (0, 8.72644782066345214844e-01) (1, 5.14194607734680175782e-01) (2, 1.14764344692230224610e+00) (3, 9.75412964820861816406e-01) (4, 9.10664200782775878906e-01) (5, 8.34626615047454833984e-01) (6, -2.81204009056091308594e+00) (7, -2.83917427062988281250e+00) (8, -2.83648657798767089844e+00) (9, -2.44808852672576904296e-01) (10, -1.88508644700050354004e-01) (11, -1.74763068556785583496e-01) (12, -1.97161570191383361816e-01) (13, -1.85352325439453125000e-01) (14, -2.56581991910934448242e-01) (15, 1.83426737785339355468e+00) (16, 1.43020772933959960938e+00) (17, 1.43959295749664306640e+00) (18, 3.24342298507690429688e+00) (0, -2.85652965307235717774e-01) (1, -2.59443372488021850586e-01) (2, -1.19527421891689300538e-01) (3, -3.40749442577362060546e-01) (4, 3.32851797342300415040e-01) (5, 1.87429323792457580566e-01) (6, -3.16234752535820007324e-02) (7, -2.66547232866287231446e-01) (8, -3.32875430583953857422e-01) (9, -2.96330749988555908204e-01) (10, -2.90451139211654663086e-01) (11, -2.27765694260597229004e-01) (12, -3.42522352933883666992e-01) (13, 5.29035031795501708984e-01) (14, -3.34905028343200683594e-01) (15, -5.70557415485382080078e-01) (16, -2.75049299001693725586e-01) (17, -4.53980267047882080078e-01) (18, -1.90984115004539489746e-01) (0, 8.01883411407470703125e+00) (1, 1.16830989718437194824e-01) (2, 2.29125261306762695312e+00) (3, 6.91886842250823974610e-01) (4, 9.68977212905883789062e-01) (5, 3.62768615722656250000e+02) (6, 3.80862772464752197266e-01) (7, 6.29119777679443359375e+00) (8, -4.94368761777877807618e-01) (9, -1.40351974964141845704e+00) (10, -3.66076380014419555664e-01) (11, -8.33246290683746337890e-01) (12, 1.03518867492675781250e+00) (13, -6.27188920974731445312e-01) (14, -1.80726838111877441406e+00) (15, 1.83045482635498046875e+00) (16, -1.47472512722015380860e+00) (17, -1.19888372719287872314e-01) (18, 2.34589815139770507812e+00) (0, 1.38272261619567871094e+00) (1, -3.68336528539657592774e-01) (2, 4.70607504248619079590e-02) (3, 7.12610423564910888672e-01) (4, -2.17948302626609802246e-01) (5, 2.13896259665489196778e-01) (6, 8.70637714862823486328e-01) (7, 2.93805241584777832032e-01) (8, 7.41587698459625244140e-01) (9, 5.51676213741302490234e-01) (10, 2.07003369927406311036e-01) (11, -9.17267560958862304688e-01) (12, -1.03941595554351806640e+00) (13, 3.59414815902709960938e-01) (14, 6.91917300224304199218e-01) (15, 4.33238804340362548828e-01) (16, -2.47993040829896926880e-02) (17, -2.63601243495941162110e-01) (18, 1.98246031999588012696e-01) (0, -2.59813427925109863282e-01) (1, -4.96696352958679199218e-01) (2, -4.15944904088973999024e-01) (3, 1.56451523303985595704e+00) (4, -4.06576484441757202148e-01) (5, 1.47399234771728515625e+00) (6, -2.21088171005249023438e-01) (7, -1.26394486427307128906e+00) (8, -5.00853776931762695312e-01) (9, 2.27304086089134216308e-01) (10, 9.47352111339569091796e-01) (11, 6.92545175552368164062e-01) (12, -3.90551120042800903320e-01) (13, -2.46096158027648925782e+00) (14, -2.32489213347434997558e-01) (15, 1.48881688714027404786e-01) (16, 1.53100296854972839356e-01) (17, 2.35981822013854980468e-01) (18, 1.79397448897361755372e-01) (0, 2.84875214099884033204e-01) (1, 1.05002604424953460694e-01) (2, 9.92266356945037841796e-01) (3, 4.31252807378768920898e-01) (4, -3.11571687459945678710e-01) (5, 6.04982912540435791016e-01) (6, -1.99594348669052124024e-01) (7, 5.33260047435760498046e-01) (8, 5.67521214485168457032e-01) (9, 6.53004705905914306640e-01) (10, 5.75596213340759277344e-01) (11, 3.94139438867568969726e-01) (12, 3.71713161468505859375e-01) (13, -2.81501680612564086914e-01) (14, -1.71413645148277282714e-02) (15, 2.14213147759437561036e-01) (16, 1.34971374645829200744e-02) (17, 6.76575377583503723144e-02) (18, 1.84608384966850280762e-01) (0, -2.80431389808654785156e-01) (1, -4.23335015773773193360e-01) (2, -6.39109849929809570312e-01) (3, 3.32898706197738647460e-01) (4, -2.98861175775527954102e-01) (5, -7.36605897545814514160e-02) (6, 7.73710131645202636718e-01) (7, 1.76706418395042419434e-01) (8, 1.59723842144012451172e+00) (9, 3.44242155551910400390e-02) (10, -2.69210875034332275390e-01) (11, 5.59705018997192382812e-01) (12, 1.47696107625961303710e-01) (13, 1.14244125783443450928e-01) (14, 2.75878459215164184570e-01) (15, 6.30965292453765869140e-01) (16, -2.28196248412132263184e-01) (17, 9.13105368614196777344e-01) (18, -3.79970818758010864258e-01) (0, 4.04333978891372680664e-01) (1, 7.99640119075775146484e-01) (2, 2.61173576116561889648e-01) (3, -2.91219997406005859375e+00) (4, 8.97409990429878234864e-02) (5, 9.77912724018096923828e-01) (6, 4.15986328125000000000e+01) (7, 6.30310118198394775390e-01) (8, 1.87410131096839904786e-01) (9, -1.74911603331565856934e-01) (10, -2.91296958923339843750e-01) (11, 6.30548819899559020996e-02) (12, -1.65651768445968627930e-01) (13, 1.33286088705062866210e-01) (14, 2.26798821240663528442e-02) (15, 8.08938086032867431640e-01) (16, 4.86581623554229736328e-01) (17, 3.24632734060287475586e-01) (18, -9.29603204131126403808e-02) (0, -1.83816599845886230468e+00) (1, -2.05222988128662109375e+00) (2, -1.62125158309936523438e+00) (3, 1.15275144577026367188e+00) (4, 2.21538972854614257812e+00) (5, 1.22419369220733642578e+00) (6, 1.01960420608520507812e+00) (7, 3.40162307024002075196e-01) (8, 1.12835431098937988282e+00) (9, 1.20188531875610351562e+01) (10, 5.99290275573730468750e+00) (11, 1.29332342147827148438e+01) (12, -2.50908166170120239258e-01) (13, -1.23852387070655822754e-01) (14, 1.69279173016548156738e-01) (15, 2.22012013196945190430e-01) (16, 3.88718023896217346192e-02) (17, 2.46790379285812377930e-01) (18, 2.07373332977294921875e+00) (0, -2.90236826986074447632e-02) (1, 2.71022468805313110352e-01) (2, 1.33092626929283142090e-02) (3, 1.36260967701673507690e-03) (4, -3.20158392190933227540e-01) (5, -2.25959122180938720704e-02) (6, 3.31838965415954589844e-01) (7, 1.20706982910633087158e-01) (8, -5.45262582600116729736e-02) (9, 3.10491994023323059082e-02) (10, 1.81500203907489776612e-02) (11, 1.71050250530242919922e-01) (12, 1.42595469951629638672e-01) (13, 4.29213196039199829102e-01) (14, 2.30703502893447875976e-02) (15, 2.44790434837341308594e-01) (16, 2.69068747758865356446e-01) (17, 1.10569171607494354248e-01) (18, 2.68866103142499923706e-02) (0, -4.15488719940185546875e-01) (1, 3.80454897880554199218e-01) (2, -1.18395112454891204834e-01) (3, -2.56710108369588851928e-02) (4, 6.14244580268859863282e-01) (5, 8.09923335909843444824e-02) (6, -4.47832524776458740234e-01) (7, 3.30631077289581298828e-01) (8, 4.57776278257369995118e-01) (9, 4.77290213108062744140e-01) (10, 1.67785316705703735352e-01) (11, -5.25772422552108764648e-02) (12, 1.77274078130722045898e-01) (13, 1.80082678794860839844e-01) (14, -2.13576599955558776856e-01) (15, 2.42311924695968627930e-01) (16, -7.61291623115539550782e-01) (17, -2.79316812753677368164e-01) (18, -7.42302983999252319336e-02) (0, -2.59417891502380371094e-02) (1, 2.25205630064010620118e-01) (2, -9.76322591304779052734e-02) (3, -2.63130813837051391602e-01) (4, 8.13318267464637756348e-02) (5, -8.38263630867004394532e-01) (6, -2.66011863946914672852e-01) (7, -5.82307241857051849366e-02) (8, 1.33381877094507217408e-03) (9, -6.84458136558532714844e-01) (10, 1.42940729856491088868e-01) (11, -7.23233938217163085938e-01) (12, -2.44144350290298461914e-02) (13, -1.76236331462860107422e-01) (14, -3.58842074871063232422e-01) (15, -2.48772072792053222656e+00) (16, 5.13732396066188812256e-02) (17, -1.10032117366790771484e+00) (18, 8.21184888482093811036e-02) (0, 1.50000000000000000000e+03) (1, -3.05887907743453979492e-02) (2, -5.15716671943664550782e-02) (3, -1.78133368492126464844e-01) (4, 1.32648984435945749282e-03) (5, -1.62730678915977478028e-01) (6, 1.14224769175052642822e-01) (7, -1.39305248856544494628e-01) (8, -3.54205071926116943360e-02) (9, 1.50000000000000000000e+03) (10, 1.46020233631134033204e-01) (11, 2.41021692752838134766e-01) (12, -2.45928429067134857178e-02) (13, 3.87163400650024414062e-01) (14, 1.35367050766944885254e-01) (15, 2.75723129510879516602e-01) (16, 4.69662696123123168946e-02) (17, 4.06544834375381469726e-01) (18, -3.80454808473587036132e-02) (0, -2.86221593618392944336e-01) (1, 3.00217717885971069336e-01) (2, -4.13340955972671508790e-01) (3, 3.83434414863586425782e-01) (4, -3.75103205442428588868e-01) (5, 2.13816538453102111816e-01) (6, 3.67785036563873291016e-01) (7, 7.61276662349700927734e-01) (8, -9.10121023654937744140e-01) (9, 5.25729596614837646484e-01) (10, -4.00104939937591552734e-01) (11, -2.29853942990303039550e-01) (12, -2.62903660535812377930e-01) (13, 8.35964798927307128906e-01) (14, -2.58226156234741210938e-01) (15, -5.18630385398864746094e-01) (16, -2.01818421483039855958e-01) (17, 3.91045838594436645508e-01) (18, -7.02428892254829406738e-02) (0, 7.35958814620971679688e+00) (1, 3.64061862230300903320e-01) (2, 1.11364938318729400634e-01) (3, 2.64613389968872070312e-01) (4, 6.25765514373779296875e+00) (5, 2.55997955799102783204e-01) (6, 1.17273993790149688720e-01) (7, 3.79691600799560546875e-01) (8, 9.98702812194824218750e+00) (9, -1.62245965003967285156e+00) (10, 1.96629419922828674316e-01) (11, 2.06694621592760086060e-02) (12, 2.09626927971839904786e-01) (13, -1.46941590309143066406e+00) (14, -7.00190737843513488770e-02) (15, 4.62187170982360839844e-01) (16, 3.19929242134094238282e-01) (17, -1.39012360572814941406e+00) (18, 9.60710108280181884766e-01) (0, 5.31983852386474609375e-01) (1, -2.25672364234924316406e-01) (2, -2.03164160251617431640e-01) (3, 5.46469502151012420654e-02) (4, -3.11824500560760498046e-01) (5, 6.91757082939147949218e-01) (6, 9.95172932744026184082e-02) (7, -2.05986112356185913086e-01) (8, -1.63189455866813659668e-01) (9, -2.90675252676010131836e-01) (10, -1.57376185059547424316e-01) (11, -1.59494012594223022460e-01) (12, -3.40032994747161865234e-01) (13, -3.92535269260406494140e-01) (14, -2.84436702728271484375e-01) (15, -3.39604705572128295898e-01) (16, -2.70874381065368652344e-01) (17, -4.58359301090240478516e-01) (18, -1.84385374188423156738e-01) (0, 4.30785864591598510742e-01) (1, -7.37577736377716064454e-01) (2, 1.08204245567321777344e-01) (3, -1.51782661676406860352e-01) (4, 1.83998525142669677734e-01) (5, -3.53774487972259521484e-01) (6, 1.01437874138355255126e-01) (7, 4.46880519390106201172e-01) (8, -3.35343360900878906250e-01) (9, -2.07091897726058959960e-01) (10, -2.80068308115005493164e-01) (11, -4.76245999336242675782e-01) (12, -2.98474788665771484375e-01) (13, -1.52045786380767822266e-01) (14, -2.07364410161972045898e-01) (15, -2.73948669433593750000e-01) (16, -2.60846853256225585938e-01) (17, -3.31469029188156127930e-01) (18, -3.00393879413604736328e-01) (0, -8.03479135036468505860e-01) (1, 3.97415876388549804688e+00) (2, -5.18782496452331542968e-01) (3, -6.78518712520599365234e-01) (4, 5.72279024124145507812e+00) (5, -6.29053413867950439454e-01) (6, -3.10963869094848632812e-01) (7, 5.19440126419067382812e+00) (8, -8.03188621997833251954e-01) (9, 9.94731843471527099610e-01) (10, -9.04077351093292236328e-01) (11, 1.60140061378479003906e+00) (12, 7.68649995326995849610e-01) (13, -7.31152355670928955078e-01) (14, 1.03946530818939208984e+00) (15, 1.26516222953796386718e+00) (16, -1.10140991210937500000e+00) (17, 1.66145205497741699218e+00) (18, 1.85178935527801513672e+00) (0, 1.54477953910827636718e-01) (1, 6.44929945468902587890e-01) (2, 6.61358058452606201172e-01) (3, 1.47557628154754638672e+00) (4, -3.16547185182571411132e-01) (5, 1.23064136505126953125e+00) (6, 2.34456360340118408204e-01) (7, 1.80358719825744628906e+00) (8, 3.43258351087570190430e-01) (9, -1.12056113779544830322e-01) (10, -3.77911716699600219726e-01) (11, 7.37574577331542968750e-01) (12, -2.30749044567346572876e-02) (13, 5.55551290512084960938e-01) (14, -4.32370081543922424316e-02) (15, 2.45123147964477539062e-01) (16, -1.33496180176734924316e-01) (17, 3.62633943557739257812e-01) (18, 2.19034850597381591796e-02) (0, 2.31477860361337661744e-02) (1, 6.05922460556030273438e-01) (2, -8.60400497913360595704e-02) (3, -5.32077662646770477294e-02) (4, 4.50937114655971527100e-02) (5, -1.34824931621551513672e-01) (6, -9.55770611763000488282e-02) (7, 2.33037188649177551270e-01) (8, -1.97344254702329635620e-02) (9, -4.50022578239440917968e-01) (10, 9.74820613861083984375e-01) (11, -8.81425887346267700196e-02) (12, 1.00788176059722900390e-01) (13, -1.53304174542427062988e-01) (14, 3.01422059535980224610e-01) (15, -4.48178708553314208984e-01) (16, 1.13773703575134277344e-01) (17, -2.51024484634399414062e-01) (18, 7.71244466304779052734e-02) (0, -4.64101254940032958984e-01) (1, 5.77613234519958496094e-01) (2, 2.77226805686950683594e-01) (3, 3.22451084852218627930e-01) (4, -9.00096654891967773438e-01) (5, -4.39958542585372924804e-01) (6, -9.76563841104507446290e-02) (7, 3.57581317424774169922e-01) (8, 1.28952875733375549316e-01) (9, -4.85693842172622680664e-01) (10, -6.04457378387451171875e-01) (11, -3.80783155560493469238e-02) (12, 5.71747839450836181640e-01) (13, 5.87272942066192626954e-01) (14, 4.11337241530418395996e-02) (15, -5.53722918033599853516e-01) (16, -6.51732623577117919922e-01) (17, -2.83943512476980686188e-03) (18, 3.65791708230972290040e-01) (0, 4.87167179584503173828e-01) (1, -1.02770641446113586426e-01) (2, 3.85395109653472900390e-01) (3, 3.65576595067977905274e-01) (4, 4.47547137737274169922e-01) (5, -1.64909869432449340820e-01) (6, 4.52642999589443206788e-02) (7, -8.65572616457939147950e-02) (8, -1.70154809951782226562e-01) (9, -1.11154235899448394776e-01) (10, -1.24206945300102233886e-01) (11, -6.03014416992664337158e-03) (12, 4.11720350384712219238e-02) (13, -3.05780507624149322510e-02) (14, -1.08049198985099792480e-01) (15, -1.60509392619132995606e-01) (16, 3.19504886865615844726e-02) (17, -1.67096316814422607422e-01) (18, 1.99900809675455093384e-02) (0, -8.41761410236358642578e-01) (1, -5.64304292201995849610e-01) (2, -3.97721529006958007812e-01) (3, 4.75186395645141601562e+00) (4, 8.20965194702148437500e+00) (5, 2.12236213684082031250e+01) (6, -4.29582893848419189454e-01) (7, -7.07946121692657470704e-01) (8, -6.70631468296051025390e-01) (9, 1.39933383464813232422e+00) (10, 1.20062172412872314454e+00) (11, 1.58759760856628417968e+00) (12, -7.24765300750732421875e-01) (13, -4.58727367222309112548e-02) (14, -2.56339579820632934570e-01) (15, 1.33479535579681396484e+00) (16, 1.09868979454040527344e+00) (17, 1.39279508590698242188e+00) (18, 6.50094211101531982422e-01) (0, -1.03276252746582031250e+00) (1, 1.97950322180986404418e-02) (2, 5.46967685222625732422e-01) (3, 4.76934289932250976562e+00) (4, 8.29795658588409423828e-01) (5, 9.66263413429260253906e-02) (6, 2.46471643447875976562e-01) (7, 2.28288471698760986328e-01) (8, 3.90016734600067138672e-01) (9, 8.33915233612060546875e-01) (10, 2.94241487979888916016e-01) (11, 2.29281038045883178710e-01) (12, 2.31508970260620117188e-01) (13, -4.90777604281902313232e-02) (14, 2.51091688871383666992e-01) (15, 9.69479739665985107422e-01) (16, -7.59828835725784301758e-04) (17, -2.19912886619567871094e-01) (18, 4.77764546871185302734e-01) (0, 2.55756169557571411132e-01) (1, 2.65686720609664916992e-01) (2, 3.46907138824462890625e-01) (3, 2.71908402442932128906e-01) (4, -1.54151424765586853028e-01) (5, 2.38952621817588806152e-01) (6, 7.00709782540798187256e-03) (7, 2.90488868951797485352e-01) (8, 1.54846729710698127746e-02) (9, 1.97903603315353393554e-01) (10, -5.57470977306365966796e-01) (11, 2.52008587121963500976e-01) (12, -1.41940772533416748046e-01) (13, 1.18873156607151031494e-01) (14, -3.82363498210906982422e-01) (15, 3.78233402967453002930e-01) (16, -1.40539318323135375976e-01) (17, -1.31263077259063720704e-01) (18, 3.57419580221176147460e-01) (0, -1.69120863080024719238e-01) (1, -1.46755039691925048828e-01) (2, -1.10834822058677673340e-01) (3, 5.65690323710441589356e-02) (4, -3.43760326504707336426e-02) (5, 3.35117131471633911132e-01) (6, -3.81280481815338134766e-02) (7, -3.00529599189758300782e-01) (8, -2.35869307070970535278e-02) (9, -4.64507043361663818360e-01) (10, -1.39491513371467590332e-01) (11, -2.00192898511886596680e-01) (12, -2.54229754209518432618e-01) (13, -2.05313056707382202148e-01) (14, -3.03668558597564697266e-01) (15, -4.52757149934768676758e-01) (16, -3.23770433664321899414e-01) (17, -5.04556953907012939454e-01) (18, -2.98063457012176513672e-01) (0, -3.60600858926773071290e-01) (1, 6.17140084505081176758e-02) (2, 2.09172606468200683594e+00) (3, -7.16678798198699951172e-02) (4, 2.57576983422040939332e-02) (5, -2.46980369091033935546e-01) (6, -3.92941206693649291992e-01) (7, 1.84358671307563781738e-01) (8, -1.35710656642913818360e-01) (9, 1.72057121992111206054e-01) (10, -1.54574234038591384888e-02) (11, 2.88654828071594238282e+00) (12, 2.45792903006076812744e-02) (13, 6.62371397018432617188e-01) (14, 1.80934488773345947266e-01) (15, 1.68971881270408630372e-01) (16, -1.65390089154243469238e-01) (17, 8.31965450197458267212e-03) (18, -1.07124537229537963868e-01) (0, -6.50885283946990966796e-01) (1, 8.38343381881713867188e-01) (2, -2.73632287979125976562e+00) (3, -9.08992767333984375000e-01) (4, -3.83612871170043945312e-01) (5, -2.59556859731674194336e-01) (6, -2.19523572921752929688e+00) (7, 1.02073562145233154296e+00) (8, -3.99109411239624023438e+00) (9, 7.62922912836074829102e-02) (10, -2.23603200912475585938e+00) (11, -5.37561476230621337890e-01) (12, -2.72212266921997070312e-01) (13, -1.75020122528076171875e+00) (14, -1.12407124042510986328e+00) (15, -2.45692580938339233398e-03) (16, -4.42151546478271484375e+00) (17, -1.46041750907897949218e-01) (18, -1.24290823936462402344e-01) (0, -1.51534810662269592286e-01) (1, -7.05208554863929748536e-02) (2, 7.29754018783569335938e+00) (3, -2.07353562116622924804e-01) (4, 5.72520019531250000000e+02) (5, 3.64261358976364135742e-01) (6, 3.61103105545043945312e+00) (7, 1.08005493879318237304e-01) (8, -5.69181740283966064454e-02) (9, 4.57690238952636718750e-01) (10, 5.58968186378479003906e-01) (11, -1.23029422760009765625e+00) (12, 1.14060238003730773926e-01) (13, -1.25220751762390136718e+00) (14, 6.87952756881713867188e-01) (15, -1.24166285991668701172e+00) (16, 5.11291921138763427734e-01) (17, 4.62724387645721435546e-01) (18, 1.21271181106567382812e+00) (0, 2.30124577879905700684e-01) (1, 3.78437966108322143554e-01) (2, 8.00197005271911621094e-01) (3, -1.01143395900726318360e+00) (4, 2.87584781646728515625e-01) (5, -9.85787451267242431640e-01) (6, 4.44514229893684387208e-02) (7, 1.20985567569732666016e-01) (8, -1.36793911457061767578e+00) (9, 5.48226058483123779296e-01) (10, -5.35556860268115997314e-03) (11, -6.49653613567352294922e-01) (12, 5.68682968616485595704e-01) (13, -2.42390394210815429688e-01) (14, 7.85082638263702392578e-01) (15, 5.34179568290710449218e-01) (16, 3.28336209058761596680e-01) (17, 3.49638849496841430664e-01) (18, 2.31371268630027770996e-01) (0, -3.34881432354450225830e-03) (1, 7.04881131649017333984e-01) (2, -5.72246611118316650390e-01) (3, 9.16271090507507324218e-01) (4, -2.41903007030487060546e-01) (5, 1.72850117087364196778e-02) (6, 3.95050078630447387696e-01) (7, -1.66179448366165161132e-01) (8, 2.36428707838058471680e-01) (9, 1.62957221269607543946e-01) (10, 1.01098203659057617188e+00) (11, 3.83476704359054565430e-01) (12, 3.02011162042617797852e-01) (13, 4.20749783515930175782e-01) (14, 3.58670830726623535156e-01) (15, 5.09909391403198242188e-02) (16, 3.53556931018829345704e-01) (17, 1.88688158988952636718e-01) (18, -2.61083424091339111328e-01) (0, 1.02451956272125244140e+00) (1, 1.14520704746246337890e+00) (2, -1.00413751602172851562e+00) (3, 9.92742240428924560546e-01) (4, 1.26398241519927978516e+00) (5, -1.15194320678710937500e+00) (6, 1.05752193927764892578e+00) (7, 1.26619970798492431640e+00) (8, -1.27743554115295410156e+00) (9, -2.42446899414062500000e-01) (10, -3.54690104722976684570e-01) (11, 1.49096953868865966796e+00) (12, -1.24266155064105987548e-01) (13, -4.99241709709167480468e-01) (14, 1.81861662864685058594e+00) (15, -1.20152212679386138916e-01) (16, -4.82071936130523681640e-01) (17, 1.21153128147125244140e+00) (18, 1.36327195167541503906e+00) (0, -1.98961243033409118652e-01) (1, -7.26728498935699462890e-01) (2, 2.43864431977272033692e-01) (3, 7.49003350734710693360e-01) (4, -1.22707128524780273438e+00) (5, -5.13433814048767089844e-02) (6, 2.19551384449005126954e-01) (7, -1.32715806365013122558e-01) (8, -4.97718481346964836120e-03) (9, 3.48474860191345214844e-01) (10, 2.41493076086044311524e-01) (11, -5.14409057796001434326e-02) (12, 1.29695963859558105468e+00) (13, 1.64155066013336181640e-01) (14, -1.35563433170318603516e-01) (15, 2.48592853546142578125e-01) (16, 1.34303003549575805664e-01) (17, -2.70677357912063598632e-01) (18, 2.46887505054473876954e-02) (0, 2.80166476964950561524e-01) (1, 1.93623781204223632812e-01) (2, 7.29053258895874023438e-01) (3, 9.94712054729461669922e-01) (4, -1.42649486660957336426e-01) (5, -9.18065309524536132812e-01) (6, 5.76140642166137695312e-01) (7, 2.66191422939300537110e-01) (8, 5.57655715942382812500e+00) (9, 2.72763490676879882812e-01) (10, -1.28202289342880249024e-02) (11, 8.53906393051147460938e-01) (12, -4.18861433863639831542e-02) (13, -2.19072669744491577148e-01) (14, 1.09600746631622314454e+00) (15, 1.53478443622589111328e-01) (16, 1.91462174057960510254e-01) (17, 2.72093743085861206054e-01) (18, 2.56766408681869506836e-01) (0, -7.41705775260925292968e-01) (1, -6.12154960632324218750e-01) (2, -7.42664873600006103516e-01) (3, 8.27661812305450439454e-01) (4, 5.61992526054382324218e-01) (5, 1.79978236556053161622e-01) (6, -5.86509764194488525390e-01) (7, -7.11027443408966064454e-01) (8, -5.86238324642181396484e-01) (9, 6.46354377269744873046e-01) (10, 5.80321013927459716796e-01) (11, 5.56974291801452636718e-01) (12, -6.03823065757751464844e-01) (13, 1.37260630726814270020e-01) (14, -1.62329232692718505860e+00) (15, 5.12464344501495361328e-01) (16, 3.98964434862136840820e-01) (17, 6.43658399581909179688e-01) (18, 2.06721380352973937988e-01) (0, -1.25588431954383850098e-01) (1, -1.29737079143524169922e-01) (2, -3.63255858421325683594e-01) (3, -5.85952281951904296875e-01) (4, 4.69893187284469604492e-01) (5, -3.03949832916259765625e-01) (6, 2.47169107198715209960e-01) (7, -2.03672933578491210938e+00) (8, 3.51781636476516723632e-01) (9, -4.64529305696487426758e-01) (10, -5.76385021209716796875e-01) (11, -3.69998872280120849610e-01) (12, 1.74016833305358886718e-01) (13, -2.44853384792804718018e-02) (14, 1.79036945104598999024e-01) (15, 2.49348506331443786622e-01) (16, -4.74692285060882568360e-02) (17, -5.49704814329743385314e-03) (18, -1.36233121156692504882e-01) (0, 3.68225313723087310792e-02) (1, 2.63858914375305175782e-01) (2, 1.30271390080451965332e-01) (3, 7.51060992479324340820e-02) (4, 2.50211328268051147460e-01) (5, 1.86066851019859313964e-01) (6, -2.91665911674499511718e-01) (7, 7.90278434753417968750e-01) (8, 1.64880618453025817872e-01) (9, -6.31040781736373901368e-02) (10, -1.34812027215957641602e-01) (11, -5.18316745758056640625e-01) (12, 8.13800916075706481934e-02) (13, -5.01637935638427734375e-01) (14, 1.48886786773800849914e-02) (15, 7.67570510506629943848e-02) (16, 9.69959795475006103516e-01) (17, 1.03768348693847656250e-01) (18, -1.42834991216659545898e-01) (19, 4.56772834062576293946e-01) (20, 8.93932580947875976562e-01) (21, -8.51624548435211181640e-01) (22, 3.09674239158630371094e+00) (23, -7.20667076110839843750e+00) (24, -9.85951960086822509766e-01) (25, 7.21355736255645751954e-01) (26, 7.14963793754577636718e-01) (27, 3.50473070144653320312e+00) (28, -2.62448519468307495118e-01) (29, -1.58150300383567810058e-01) (30, 3.60652476549148559570e-01) (31, -1.29308629035949707032e+00) (32, -2.37912848591804504394e-01) (33, -7.09868550300598144532e-01) (34, 1.67639935016632080078e+00) (35, -5.91085672378540039062e-01) (36, 3.37370204925537109375e+00) (37, -1.19000338017940521240e-01) (38, -3.94568443298339843750e-01) (39, 1.08289480209350585938e+00) (40, 3.08785408735275268554e-01) (41, 4.22532767057418823242e-01) (42, 6.95332527160644531250e-01) (43, 5.55603682994842529296e-01) (44, -1.62500366568565368652e-01) (45, -1.13007046282291412354e-01) (46, 1.20523035526275634766e+00) (47, 1.28972280025482177734e+00) (48, 5.62384843826293945312e-01) (49, 1.66470444202423095704e+00) (50, 8.42949926853179931640e-01) (51, 5.35992860794067382812e-01) (52, 1.07577133178710937500e+01) (53, -1.69441536068916320800e-01) (54, -9.59889069199562072754e-02) (55, -5.20373582839965820312e-01) (56, 7.97101333737373352050e-02) (57, 7.46341943740844726562e-01) (58, -4.09818142652511596680e-01) (59, -1.47870689630508422852e-01) (60, -2.59626209735870361328e-01) (61, -2.29045939445495605468e+00) (62, -1.59617674350738525390e+00) (63, 9.93950843811035156250e-01) (64, 6.39597028493881225586e-02) (65, 8.40983986854553222656e-01) (66, 4.79145002365112304688e+00) (67, 6.38978421688079833984e-01) (68, -1.38571754097938537598e-01) (69, 6.82782530784606933594e-01) (70, 1.70526349544525146484e+00) (71, 3.26575016975402832032e+00) (72, -5.54352030158042907714e-02) (73, -3.63077998161315917968e+00) (74, 3.83206868171691894532e+00) (75, 2.42026880383491516114e-01) (76, 1.16545937955379486084e-01) (77, 6.38400256633758544922e-01) (78, 5.08546972274780273438e+00) (79, 4.50444281101226806640e-01) (19, 3.20087015628814697266e-01) (20, 1.92105248570442199708e-02) (21, -9.03672754764556884766e-01) (22, -1.44146764278411865234e+00) (23, -1.02881479263305664062e+00) (24, 4.89408588409423828125e+00) (25, -5.59870481491088867188e-01) (26, -1.14144444465637207032e+00) (27, 1.03145349025726318360e+00) (28, -5.04719257354736328125e-01) (29, 2.35400214791297912598e-01) (30, 1.03307805955410003662e-01) (31, 8.11415195465087890625e-01) (32, 7.38036394119262695312e-01) (33, 5.88195800781250000000e-01) (34, 2.07696720957756042480e-01) (35, -1.47092148661613464356e-01) (36, 3.31042289733886718750e+00) (37, 9.14041519165039062500e-01) (38, -5.95224380493164062500e-01) (39, 4.30108398199081420898e-01) (40, 1.14380456507205963134e-01) (41, -4.00035642087459564208e-02) (42, 1.45664200186729431152e-01) (43, -2.39763837307691574096e-02) (44, -1.99156776070594787598e-01) (45, -2.56994158029556274414e-01) (46, 5.79439878463745117188e-01) (47, 7.71012663841247558594e-01) (48, 5.86059451103210449218e-01) (49, -3.30977469682693481446e-01) (50, 4.20992046594619750976e-01) (51, 1.71063590049743652344e+00) (52, -1.47970640659332275390e+00) (53, 5.68835556507110595704e-01) (54, 2.17628687620162963868e-01) (55, -4.18883383274078369140e-01) (56, -6.37577235698699951172e-01) (57, 7.49074399471282958984e-01) (58, 8.14679563045501708984e-01) (59, -6.38303011655807495118e-02) (60, 9.46843326091766357422e-02) (61, 1.18894350528717041016e+00) (62, -6.80292189121246337890e-01) (63, -3.10861897468566894532e+00) (64, 6.43677234649658203125e-01) (65, -3.50087672472000122070e-01) (66, -1.22901904582977294922e+00) (67, -7.85895958542823791504e-02) (68, 4.39265578985214233398e-01) (69, -4.69421684741973876954e-01) (70, -2.07604378461837768554e-01) (71, 1.22084148228168487548e-01) (72, 6.31573259830474853516e-01) (73, 1.10943591594696044922e+00) (74, -7.49495327472686767578e-01) (75, 8.03127646446228027344e-01) (76, 5.67944943904876708984e-01) (77, 5.88611423969268798828e-01) (78, 1.14072585105895996094e+00) (79, -2.16496616601943969726e-01) (19, -5.54506480693817138672e-01) (20, 1.71722739934921264648e-01) (21, -3.38158488273620605468e+00) (22, -3.36156368255615234375e+00) (23, 4.73134011030197143554e-01) (24, 4.31287050247192382812e+00) (25, -1.65182545781135559082e-01) (26, 1.73466551303863525390e+00) (27, -5.22369086742401123046e-01) (28, 1.44201564788818359375e+00) (29, 3.20349335670471191406e-01) (30, 8.11112858355045318604e-03) (31, 1.28209340572357177734e+00) (32, 2.79636919498443603516e-01) (33, 3.82981270551681518554e-01) (34, 3.78772091865539550782e+00) (35, -1.12911176681518554688e+00) (36, -2.87282514572143554688e+00) (37, -6.51800334453582763672e-02) (38, 6.45821630954742431640e-01) (39, 1.26788035035133361816e-01) (40, 3.16375553607940673828e-01) (41, -4.89982724189758300782e-01) (42, 6.45037055015563964844e-01) (43, 3.21758799254894256592e-02) (44, 5.70834279060363769532e-01) (45, -3.56987640261650085450e-02) (46, 9.21900629997253417968e-01) (47, -1.47700402885675430298e-02) (48, 2.64687657356262207032e+00) (49, -4.36882197856903076172e-01) (50, -7.62822851538658142090e-02) (51, -4.26186037063598632812e+00) (52, 6.83544218540191650390e-01) (53, -5.28096631169319152832e-02) (54, 7.35872685909271240234e-01) (55, 2.83737111091613769532e+00) (56, 1.08727765083312988282e+00) (57, 2.56819695234298706054e-01) (58, 5.04830837249755859375e-01) (59, 2.44502115249633789062e+00) (60, 5.12576580047607421875e-01) (61, -5.82665085792541503906e-01) (62, -1.15433228015899658204e+00) (63, -2.41178095340728759766e-01) (64, -7.64260947704315185546e-01) (65, 1.38476312160491943360e-01) (66, -7.16247677803039550782e-01) (67, 7.19271972775459289550e-03) (68, 3.13939064741134643554e-01) (69, 3.66613447666168212890e-01) (70, 1.81192231178283691406e+00) (71, -2.27229356765747070312e+00) (72, 3.03663301467895507812e+00) (73, -2.65753078460693359375e+00) (74, -1.05047690868377685546e+00) (75, -6.75370022654533386230e-02) (76, -5.69599628448486328125e+00) (77, -1.15629363059997558594e+00) (78, 2.21700477600097656250e+00) (79, -1.69383287429809570312e-01) (19, 4.70632702112197875976e-01) (20, 2.50957161188125610352e-02) (21, 2.39356577396392822266e-01) (22, 5.67783713340759277344e-01) (23, -3.29527258872985839844e-02) (24, 5.03014959394931793212e-02) (25, -1.18938803672790527344e+00) (26, 7.57551133632659912110e-01) (27, -9.87021923065185546875e-02) (28, -2.39171460270881652832e-01) (29, 1.90514996647834777832e-01) (30, -5.76534792780876159668e-02) (31, 2.58673644065856933594e+00) (32, 1.19622838497161865234e+00) (33, 4.63947594165802001954e-01) (34, 4.73910182714462280274e-01) (35, 3.23498882353305816650e-02) (36, -6.80882871150970458984e-01) (37, 2.10405558347702026368e-01) (38, 1.60697922110557556152e-01) (39, 5.03743410110473632812e-01) (40, -1.73704147338867187500e-01) (41, 3.90480637550354003906e-01) (42, -1.21772764250636100770e-02) (43, -4.41006794571876525878e-02) (44, 1.68944284319877624512e-01) (45, -1.71916410326957702636e-01) (46, -1.23590640723705291748e-01) (47, 1.31294608116149902344e-01) (48, -2.93688118457794189454e-01) (49, -1.62000492215156555176e-01) (50, -9.61872469633817672730e-03) (51, 1.60347342491149902344e-01) (52, 1.34405958652496337890e+00) (53, 2.62694060802459716796e-01) (54, 2.48682186007499694824e-01) (55, -4.49697554111480712890e-01) (56, -2.82917261123657226562e-01) (57, -2.09241211414337158204e-01) (58, 9.26229476928710937500e-01) (59, 5.04296720027923583984e-01) (60, 2.17720985412597656250e-01) (61, 4.56597447395324707032e-01) (62, -8.75051915645599365234e-01) (63, -3.33691209554672241210e-01) (64, 3.48478436470031738282e-01) (65, 3.49112004041671752930e-02) (66, 3.63780170679092407226e-01) (67, 3.88767309486865997314e-02) (68, 3.54516118764877319336e-01) (69, 3.96315790712833404542e-02) (70, -1.88267365097999572754e-01) (71, 5.18324434757232666016e-01) (72, -4.60574984550476074218e-01) (73, 1.10977061092853546142e-01) (74, -4.13278043270111083984e-01) (75, 6.02492541074752807618e-02) (76, 9.96966734528541564942e-02) (77, 7.26214587688446044922e-01) (78, 1.09759283065795898438e+00) (79, -2.66930490732192993164e-01) (19, -4.33713614940643310546e-01) (20, 8.64738047122955322266e-01) (21, 4.74514871835708618164e-01) (22, 8.18341910839080810546e-01) (23, 1.32424628734588623046e+00) (24, -5.98099470138549804688e-01) (25, -2.16648846864700317382e-01) (26, 2.36127972602844238282e+00) (27, -4.32129621505737304688e-01) (28, -5.93777596950531005860e-02) (29, 1.65900170803070068360e-01) (30, -2.55394540727138519288e-02) (31, -3.31065922975540161132e-01) (32, 4.04360443353652954102e-02) (33, 5.36368608474731445312e-01) (34, -5.19734084606170654296e-01) (35, 2.77451455593109130860e-01) (36, -1.98337507247924804688e+00) (37, 2.03316166996955871582e-01) (38, -2.38697960972785949708e-01) (39, 9.05840754508972167968e-01) (40, 4.86304044723510742188e-01) (41, 4.16147887706756591796e-01) (42, -9.58406180143356323242e-02) (43, 4.92226406931877136230e-02) (44, 1.18785834312438964844e+00) (45, -4.51773703098297119140e-01) (46, -5.68610846996307373046e-01) (47, 1.87135905027389526368e-01) (48, 8.09898823499679565430e-02) (49, -1.99623465538024902344e-01) (50, 1.32447099685668945312e+00) (51, -1.61186003684997558594e+00) (52, 2.57925605773925781250e+00) (53, 1.32936358451843261718e-01) (54, 3.21137845516204833984e-01) (55, 1.51968562602996826172e+00) (56, 7.55194902420043945312e-01) (57, -1.97287742048501968384e-02) (58, 7.17216610908508300782e-01) (59, 5.36735475063323974610e-01) (60, -2.98554301261901855468e-01) (61, 1.31204378604888916016e+00) (62, -1.51269030570983886718e+00) (63, -4.03198575973510742188e+00) (64, 4.84616279602050781250e-01) (65, 1.90568536520004272460e-01) (66, 1.64086580276489257812e-01) (67, 1.45794814452528953552e-02) (68, -1.17983305454254150390e+00) (69, -1.14629156887531280518e-02) (70, 2.28361815214157104492e-01) (71, -5.73869180679321289062e+00) (72, -1.61266347276978194714e-04) (73, -5.74612736701965332032e-01) (74, -6.73500299453735351562e-01) (75, 2.18243867158889770508e-01) (76, -1.32902348041534423828e+00) (77, 1.21786034107208251954e+00) (78, 3.00065612792968750000e+00) (79, -1.20092749595642089844e-01) (19, -2.79943972826004028320e-01) (20, 4.39380407333374023438e-01) (21, 1.74029219150543212890e+00) (22, 2.11522293090820312500e+00) (23, 6.44770026206970214844e-01) (24, 2.17412069439888000488e-01) (25, 3.20251911878585815430e-01) (26, 2.19936400651931762696e-01) (27, 2.23799824714660644532e-01) (28, -1.68330878019332885742e-01) (29, 8.11242535710334777832e-02) (30, -1.75916507840156555176e-01) (31, 1.49221992492675781250e+00) (32, 6.64342880249023437500e-01) (33, 1.34563505649566650390e-01) (34, 3.23769062757492065430e-01) (35, 3.65855067968368530274e-01) (36, -2.54088222980499267578e-01) (37, -3.77732694149017333984e-01) (38, -2.81834036111831665040e-01) (39, -5.82309626042842864990e-02) (40, -3.43084365129470825196e-01) (41, -5.52249792963266372680e-03) (42, 5.74960768222808837890e-01) (43, 1.19760766625404357910e-01) (44, -2.61974871158599853516e-01) (45, -9.11529585719108581542e-02) (46, 5.50590515136718750000e-01) (47, 8.15028920769691467286e-02) (48, -7.15087130665779113770e-02) (49, -4.61008012294769287110e-01) (50, 3.70947092771530151368e-01) (51, 5.59539020061492919922e-01) (52, 1.12431418895721435546e+00) (53, -1.34603947401046752930e-01) (54, -2.07391545176506042480e-01) (55, -7.80353486537933349610e-01) (56, -3.97000983357429504394e-02) (57, 6.56667798757553100586e-02) (58, 5.25990068912506103516e-01) (59, 4.37336027622222900390e-01) (60, 3.67628961801528930664e-01) (61, -3.63344997167587280274e-02) (62, -6.71417355537414550782e-01) (63, -6.97917258366942405700e-03) (64, 1.39929085969924926758e-01) (65, 6.55263215303421020508e-02) (66, -2.08033338189125061036e-01) (67, 2.91587948799133300782e-01) (68, 5.38861930370330810546e-01) (69, 6.97559654712677001954e-01) (70, -1.86070427298545837402e-01) (71, 1.18288671970367431640e+00) (72, -2.34956994652748107910e-01) (73, 4.73604083061218261718e-01) (74, 2.41654142737388610840e-01) (75, -6.19852006435394287110e-01) (76, 5.86707711219787597656e-01) (77, 4.39058929681777954102e-01) (78, 5.60388088226318359375e-01) (79, -3.33098381757736206054e-01) (19, -7.04787492752075195312e-01) (20, -5.54298698902130126954e-01) (21, -7.13909864425659179688e-01) (22, -1.69914126396179199218e-01) (23, 3.92291277647018432618e-01) (24, -3.19716721773147583008e-01) (25, 5.36050379276275634766e-01) (26, 5.01381695270538330078e-01) (27, -7.86045551300048828125e-01) (28, -2.45293676853179931640e-01) (29, -2.26458445191383361816e-01) (30, -7.22238793969154357910e-02) (31, -8.17665100097656250000e-01) (32, 4.97526079416275024414e-01) (33, 2.70347505807876586914e-01) (34, 8.03103208541870117188e-01) (35, -4.44720033556222915650e-03) (36, 2.45715960860252380372e-01) (37, -6.48156404495239257812e-01) (38, 7.27438211441040039062e-01) (39, -2.94739991426467895508e-01) (40, 8.82988274097442626954e-02) (41, -3.08139547705650329590e-02) (42, 8.83833825588226318360e-01) (43, 6.71596825122833251954e-02) (44, 1.36770233511924743652e-01) (45, 1.26739537715911865234e+00) (46, -1.44669508934020996094e+00) (47, -2.87956058979034423828e-01) (48, 3.16485285758972167968e-01) (49, -2.19549596309661865234e-01) (50, -1.92929255962371826172e+00) (51, 2.29241311550140380860e-01) (52, 2.65593099594116210938e+00) (53, 4.27967458963394165040e-01) (54, -6.56125769019126892090e-02) (55, 2.47439002990722656250e+00) (56, 4.25776630640029907226e-01) (57, 2.38833636045455932618e-01) (58, 3.64476710557937622070e-01) (59, 1.63156974315643310546e+00) (60, 2.59150981903076171875e-01) (61, 1.38897433876991271972e-01) (62, 1.30174979567527770996e-01) (63, -2.08293795585632324218e+00) (64, 1.23370301723480224610e+00) (65, 9.91719681769609451294e-03) (66, 6.97012841701507568360e-01) (67, 2.19889938831329345704e-01) (68, -7.82333087921142578125e+00) (69, 6.59212887287139892578e-01) (70, -7.04854190349578857422e-01) (71, -1.17499291896820068360e+00) (72, 6.82662367820739746094e-01) (73, -1.83189308643341064454e+00) (74, 2.39223986864089965820e-01) (75, 2.37656965851783752442e-01) (76, -1.49391210079193115234e+00) (77, 6.66062295436859130860e-01) (78, 5.55705070495605468750e-01) (79, 6.55518651008605957032e-01) (19, -1.72274515032768249512e-01) (20, 1.47368058562278747558e-01) (21, 9.52729403972625732422e-01) (22, 1.06236207485198974610e+00) (23, 5.69268822669982910156e-01) (24, -2.28234529495239257812e-01) (25, 4.26988124847412109375e-01) (26, -1.89872384071350097656e+00) (27, 3.48562508821487426758e-01) (28, 1.78622037172317504882e-01) (29, -6.00692890584468841552e-02) (30, 1.03320926427841186524e-01) (31, 9.34825479984283447266e-01) (32, 1.05451323091983795166e-01) (33, 1.65359273552894592286e-01) (34, -3.00638318061828613282e-01) (35, 1.53386056423187255860e-01) (36, -7.03792795538902282714e-02) (37, 2.93683493509888648986e-03) (38, 4.11933958530426025390e-01) (39, -2.07360342144966125488e-01) (40, -2.49325335025787353516e-01) (41, 2.86130458116531372070e-01) (42, -3.26890647411346435546e-02) (43, 6.58238351345062255860e-01) (44, -1.45743921399116516114e-01) (45, 2.97990351915359497070e-01) (46, 9.34589579701423645020e-02) (47, 2.59975910186767578125e-01) (48, 7.39736199378967285156e-01) (49, 3.45310211181640625000e-01) (50, -1.47182613611221313476e-01) (51, -2.34323851764202117920e-02) (52, 1.07496714591979980468e+00) (53, 5.91677725315093994140e-01) (54, -4.93127815425395965576e-02) (55, 3.80957245826721191406e-01) (56, 2.06503912806510925292e-01) (57, 5.87173521518707275390e-01) (58, 1.00374750792980194092e-01) (59, -8.39384943246841430664e-02) (60, 5.47137618064880371094e-01) (61, -4.05589848756790161132e-01) (62, -1.04690599441528320312e+00) (63, 1.20650626718997955322e-01) (64, -1.01364068686962127686e-01) (65, 3.16105306148529052734e-01) (66, 6.01587653160095214844e-01) (67, 6.80143654346466064454e-01) (68, -2.49359514564275741578e-02) (69, 5.47380924224853515625e-01) (70, -2.83673077821731567382e-01) (71, 6.02857530117034912110e-01) (72, 4.41181391477584838868e-01) (73, -1.37496709823608398438e-01) (74, 1.54443964362144470214e-01) (75, 2.69167691469192504882e-01) (76, -3.53217482566833496094e-01) (77, 7.72171542048454284668e-02) (78, 7.27855205535888671875e-01) (79, 1.79207980632781982422e-01) (19, 3.62194210290908813476e-01) (20, 3.47732663154602050782e-01) (21, 6.32848262786865234375e+00) (22, 2.67245125770568847656e+00) (23, -2.66984671354293823242e-01) (24, 1.13119203597307205200e-02) (25, -1.09764620661735534668e-01) (26, 2.03211694955825805664e-01) (27, -1.69011563062667846680e-01) (28, -1.42788636684417724610e+00) (29, -1.46726214885711669922e+00) (30, 4.99084532260894775390e-01) (31, 2.53106999397277832032e+00) (32, -3.33305567502975463868e-01) (33, -7.52106010913848876954e-01) (34, -5.71293652057647705078e-01) (35, 1.24474430084228515625e+00) (36, 5.60469102859497070312e+00) (37, 6.77886128425598144532e-01) (38, -1.09579634666442871094e+00) (39, -5.74345171451568603516e-01) (40, 2.94048118591308593750e+00) (41, 9.45670187473297119140e-01) (42, 2.81284117698669433594e+00) (43, 4.18794989585876464844e-01) (44, 2.15181574225425720214e-01) (45, 3.17101597785949707032e-01) (46, 1.23515963554382324218e-01) (47, -4.87436056137084960938e-01) (48, 7.25575971603393554688e+00) (49, 3.63019734621047973632e-01) (50, 8.36378335952758789062e-01) (51, 4.47027057409286499024e-01) (52, 1.86739385128021240234e+00) (53, -4.38178926706314086914e-01) (54, 5.32170116901397705078e-01) (55, -2.60419464111328125000e+00) (56, 6.20213210582733154296e-01) (57, -2.35757708549499511718e-01) (58, -1.95664823055267333984e-01) (59, -2.23755359649658203125e+00) (60, 4.59484279155731201172e-01) (61, 4.32189851999282836914e-01) (62, 3.76988261938095092774e-01) (63, -8.37551593780517578125e+00) (64, -1.83505356311798095704e+00) (65, -4.65320348739624023438e-01) (66, -6.19290494918823242188e+00) (67, 4.43122059106826782226e-01) (68, -7.25685898214578628540e-03) (69, -2.53320068120956420898e-01) (70, -1.45533549785614013672e+00) (71, -9.73362565040588378906e-01) (72, -1.88732624053955078125e-01) (73, 3.12724351882934570312e+00) (74, 5.95211505889892578125e-01) (75, 3.07935453020036220550e-03) (76, 2.53753852844238281250e+00) (77, 1.47458076477050781250e+00) (78, 3.09647202491760253906e+00) (79, 4.68339800834655761718e-01) (19, 6.19255244731903076172e-01) (20, 4.57646667957305908204e-01) (21, -3.72350066900253295898e-01) (22, 5.94181954860687255860e-01) (23, -2.56899762153625488282e+00) (24, 1.44590049982070922852e-01) (25, -6.27046972513198852540e-02) (26, -5.95464348793029785156e-01) (27, 4.67292755842208862304e-01) (28, 1.97592961788177490234e+00) (29, 1.51994979381561279296e+00) (30, -6.83315277099609375000e-01) (31, -4.92364358901977539062e+00) (32, -3.38080346584320068360e-01) (33, 1.37946105003356933594e+00) (34, -1.10186301171779632568e-01) (35, -1.42961788177490234375e+00) (36, 1.19340553283691406250e+01) (37, 1.98016011714935302734e+00) (38, -6.38158321380615234375e-01) (39, 3.92755448818206787110e-01) (40, 1.45539147779345512390e-02) (41, -2.87967883050441741944e-02) (42, -2.55672955513000488282e+00) (43, -1.27535566687583923340e-01) (44, 1.38027381896972656250e+00) (45, -7.14291930198669433594e-01) (46, 2.14365482330322265625e+00) (47, -1.63690105080604553222e-01) (48, 5.13709247112274169922e-01) (49, 4.38338637351989746094e-01) (50, 3.63991588354110717774e-01) (51, 4.90931391716003417968e-01) (52, -3.20402950048446655274e-01) (53, -1.09759382903575897216e-01) (54, 4.84039157629013061524e-01) (55, 6.95179700851440429688e-01) (56, 1.15385794639587402344e+00) (57, 3.68865113705396652222e-03) (58, 4.59497421979904174804e-01) (59, 1.54746174812316894532e+00) (60, 6.20864748954772949218e-01) (61, -2.01813653111457824708e-01) (62, 5.54482102394104003906e-01) (63, 2.41102237701416015625e+01) (64, 4.54858154058456420898e-01) (65, 1.56546309590339660644e-01) (66, 3.85776281356811523438e-01) (67, -8.10248479247093200684e-02) (68, -1.62682950496673583984e+00) (69, -1.20246842503547668458e-01) (70, 6.39502823352813720704e-01) (71, -1.23966801166534423828e+00) (72, 5.71959093213081359864e-02) (73, 8.47008824348449707032e-01) (74, -5.50624310970306396484e-01) (75, -1.53757020831108093262e-01) (76, 1.76112031936645507812e+00) (77, -9.32049989700317382812e-01) (78, -2.84934115409851074218e+00) (79, 2.11946014314889907836e-02) (19, 5.70744574069976806640e-01) (20, 4.00771573185920715332e-02) (21, -4.31395292282104492188e-01) (22, -2.63546943664550781250e-01) (23, -4.28986698389053344726e-02) (24, -2.21966002136468887330e-02) (25, -4.16046202182769775390e-01) (26, 3.85923862457275390625e-01) (27, 6.75798714160919189454e-01) (28, 3.95335435867309570312e-01) (29, 3.80879044532775878906e-01) (30, -2.51635938882827758790e-01) (31, -5.65651878714561462402e-02) (32, 8.46295118331909179688e-01) (33, 3.39477598667144775390e-01) (34, -3.71715277433395385742e-02) (35, 4.58987683057785034180e-01) (36, 1.23119555413722991944e-01) (37, 2.97637641429901123046e-01) (38, -3.00944298505783081054e-01) (39, 6.26244962215423583984e-01) (40, -3.41310441493988037110e-01) (41, 2.49802563339471817016e-02) (42, -5.47437071800231933594e-02) (43, 2.10905652493238449096e-02) (44, 3.37482154369354248046e-01) (45, -4.32248413562774658204e-01) (46, 1.17598164081573486328e+00) (47, 2.24830120801925659180e-01) (48, -3.31312030553817749024e-01) (49, -1.91362679004669189454e-01) (50, 4.47366714477539062500e-01) (51, -2.15366572141647338868e-01) (52, 4.80024874210357666016e-01) (53, 3.65988403558731079102e-01) (54, 1.70591309666633605958e-01) (55, 3.58844876289367675782e-01) (56, 2.91603893041610717774e-01) (57, 1.21877971105277538300e-03) (58, 7.52582132816314697266e-01) (59, -1.73186883330345153808e-01) (60, -1.82957589626312255860e-01) (61, 1.24795973300933837890e+00) (62, 6.12148880958557128906e-01) (63, 1.23743307590484619140e+00) (64, 4.12731230258941650390e-01) (65, 5.91173246502876281738e-02) (66, -1.03286437690258026124e-01) (67, 3.79415899515151977540e-02) (68, 3.09322565793991088868e-01) (69, -5.35014737397432327270e-03) (70, 5.47420442104339599610e-01) (71, 7.34402775764465332032e-01) (72, -6.15105986595153808594e-01) (73, 2.38708794116973876954e-01) (74, -2.87519395351409912110e-01) (75, 8.61200839281082153320e-02) (76, 6.31962239742279052734e-01) (77, 6.44148766994476318360e-01) (78, -3.31930965185165405274e-01) (79, -2.11480632424354553222e-01) (19, 1.99869966506958007812e+00) (20, 7.62586653232574462890e-01) (21, 6.61895275115966796875e-02) (22, 1.64686310291290283204e+00) (23, -3.55173993110656738282e+00) (24, 2.45538860559463500976e-01) (25, 2.41599619388580322266e-01) (26, -8.92391979694366455078e-01) (27, -2.97383308410644531250e+00) (28, 1.82717517018318176270e-01) (29, -8.29025208950042724610e-01) (30, 1.20427817106246948242e-01) (31, 6.11732780933380126954e-01) (32, 6.87299370765686035156e-02) (33, 2.70287543535232543946e-01) (34, -2.52008247375488281250e+00) (35, 9.61854279041290283204e-01) (36, 4.26754760742187500000e+00) (37, 1.00554013252258300782e+00) (38, 1.46801078319549560546e+00) (39, 1.37723600491881370544e-02) (40, -1.25523269176483154296e-01) (41, 1.09319817274808883666e-02) (42, -1.27397525310516357422e+00) (43, 6.18010163307189941406e-01) (44, 3.66979360580444335938e-01) (45, -2.94618159532546997070e-02) (46, 1.20942926406860351562e+00) (47, -3.36357086896896362304e-01) (48, -2.65997856855392456054e-01) (49, -1.22476375102996826172e+00) (50, 2.23557424545288085938e+00) (51, -1.31042107939720153808e-01) (52, -2.18113040924072265625e+00) (53, -2.18947127461433410644e-01) (54, 6.81129884719848632812e+00) (55, -1.31548538804054260254e-01) (56, 3.97413402795791625976e-01) (57, 5.41531324386596679688e-01) (58, 6.21811509132385253906e-01) (59, -5.41072130203247070312e-01) (60, -2.58955538272857666016e-01) (61, -5.16019165515899658204e-01) (62, -3.06733298301696777344e+00) (63, -8.76088961958885192872e-02) (64, -1.40819776058197021484e+00) (65, -2.91925985366106033326e-02) (66, 2.69726395606994628906e-01) (67, 1.95422992110252380372e-02) (68, -1.32722139358520507812e-01) (69, -7.81171023845672607422e-02) (70, -1.89074182510375976562e+00) (71, 2.73499155044555664062e+00) (72, 9.01873409748077392578e-02) (73, -9.13297116756439208984e-01) (74, 8.54559004306793212890e-01) (75, -5.66767990589141845704e-01) (76, 2.03826093673706054688e+00) (77, -2.38472908735275268554e-01) (78, -5.51941633224487304688e-01) (79, -1.70755252242088317872e-01) (19, -3.84952396154403686524e-01) (20, 1.29449939727783203125e+00) (21, -1.07152545452117919922e+00) (22, -1.37151575088500976562e+00) (23, 4.00258570909500122070e-01) (24, -1.96999609470367431640e-01) (25, 4.95259195566177368164e-01) (26, 1.97235333919525146484e+00) (27, -2.61132299900054931640e-01) (28, 4.84631448984146118164e-01) (29, -1.06302905082702636718e+00) (30, -2.74849891662597656250e-01) (31, -1.39874577522277832032e-01) (32, 2.30333909392356872558e-01) (33, -9.00034129619598388672e-01) (34, -1.77518054842948913574e-01) (35, 4.79744344949722290040e-01) (36, -2.30747175216674804688e+00) (37, 3.95926177501678466796e-01) (38, 5.83869040012359619140e-01) (39, 2.36388176679611206054e-01) (40, 4.47028547525405883790e-01) (41, 3.15021395683288574218e-01) (42, -6.99092522263526916504e-02) (43, 6.10511422157287597656e-01) (44, 3.50311189889907836914e-01) (45, -7.84425437450408935546e-01) (46, -1.09435476362705230712e-01) (47, 1.60416215658187866210e-01) (48, 7.01584100723266601562e-01) (49, 3.37038785219192504882e-01) (50, 1.63725391030311584472e-01) (51, -3.81394922733306884766e-02) (52, 5.56399226188659667968e-01) (53, 6.65591180324554443360e-01) (54, -1.30913093686103820800e-01) (55, 6.30403399467468261718e-01) (56, 7.95759201049804687500e-01) (57, 6.38240575790405273438e-01) (58, 1.48804828524589538574e-01) (59, 3.08050420135259628296e-02) (60, -1.14515043795108795166e-01) (61, 6.28727898001670837402e-02) (62, -8.06538224220275878906e-01) (63, -2.45567345619201660156e+00) (64, 2.16844230890274047852e-01) (65, 6.24152719974517822266e-01) (66, 7.38497912883758544922e-01) (67, 6.91796123981475830078e-01) (68, -1.24173313379287719726e-01) (69, 5.88726639747619628906e-01) (70, 2.16081306338310241700e-01) (71, -3.17010092735290527344e+00) (72, 3.48169356584548950196e-01) (73, -1.83187425136566162110e-01) (74, -7.22950398921966552734e-01) (75, 2.78199374675750732422e-01) (76, -7.10108637809753417968e-01) (77, -3.55969876050949096680e-01) (78, -1.97251826524734497070e-01) (79, 5.58090209960937500000e-01) (19, 2.03459218144416809082e-01) (20, 1.28862842917442321778e-01) (21, -4.08357095718383789062e+00) (22, -9.33429539203643798828e-01) (23, -2.67522573471069335938e-01) (24, -1.06301344931125640870e-01) (25, -3.61378282308578491210e-01) (26, -1.05467128753662109375e+00) (27, -2.70666386932134628296e-02) (28, -3.25552135705947875976e-01) (29, -6.82380842044949531556e-03) (30, -8.42680409550666809082e-02) (31, 4.75552588701248168946e-01) (32, 7.34984099864959716796e-01) (33, -2.22234129905700683594e-01) (34, -9.55319762229919433594e-01) (35, -1.12255625426769256592e-01) (36, -6.70292913913726806640e-01) (37, -1.88766613602638244628e-01) (38, -4.30593401193618774414e-01) (39, 1.10226534307003021240e-01) (40, 3.75782430171966552734e-01) (41, -2.33784064650535583496e-01) (42, 6.69724345207214355468e-01) (43, 3.73601652681827545166e-02) (44, -4.66774404048919677734e-02) (45, -7.36473202705383300782e-01) (46, 6.33488595485687255860e-01) (47, 1.36964306235313415528e-01) (48, -2.04095625877380371094e+00) (49, -4.57099705934524536132e-01) (50, 2.26460233330726623536e-01) (51, 4.17095571756362915040e-01) (52, -1.99930763244628906250e+00) (53, 7.31321632862091064454e-01) (54, 8.70174169540405273438e-02) (55, 4.18601125478744506836e-01) (56, -1.59907504916191101074e-01) (57, 9.44169521331787109375e-01) (58, 7.98585295677185058594e-01) (59, 7.37213417887687683106e-02) (60, 7.13396012783050537110e-01) (61, 3.45754176378250122070e-01) (62, -8.74036252498626708984e-01) (63, -4.63756807148456573486e-02) (64, -4.77953441441059112548e-02) (65, -3.16698431968688964844e-01) (66, 5.91955244541168212890e-01) (67, 6.76819905638694763184e-02) (68, 1.29536166787147521972e-01) (69, -2.06639677286148071290e-01) (70, -3.32994014024734497070e-01) (71, 1.34004759788513183594e+00) (72, -5.26137053966522216796e-01) (73, 5.81310808658599853516e-01) (74, 3.89304131269454956054e-01) (75, 6.12947106361389160156e-01) (76, -4.69762831926345825196e-01) (77, 6.31519258022308349610e-01) (78, -1.21353125572204589844e+00) (79, -2.56205499172210693360e-01) (19, 1.09267318248748779296e+00) (20, 4.67770397663116455078e-01) (21, -7.60852098464965820312e+00) (22, 4.73423337936401367188e+00) (23, -7.75454664230346679688e+00) (24, 9.21452045440673828125e+00) (25, 3.53831201791763305664e-01) (26, -9.62728118896484375000e+00) (27, -4.01735335588455200196e-01) (28, 9.65397179126739501954e-01) (29, 1.18561732769012451172e+00) (30, -3.86334598064422607422e-01) (31, -7.87066102027893066406e-01) (32, -5.04133403301239013672e-01) (33, 6.79642152786254882812e+00) (34, 1.59097170829772949218e+00) (35, -3.30590724945068359375e-01) (36, 1.34287290573120117188e+01) (37, 3.20736944675445556640e-01) (38, -3.92537832260131835938e-01) (39, 6.47961914539337158204e-01) (40, 1.03321552276611328125e+00) (41, -2.16005697846412658692e-01) (42, 4.12453353404998779296e-01) (43, -6.25994503498077392578e-01) (44, 1.03585124015808105468e+00) (45, 2.15338540077209472656e+00) (46, -1.09183063507080078125e+01) (47, 3.94471287727355957032e-01) (48, 2.45231091976165771484e-01) (49, 3.49406421184539794922e-01) (50, 6.36032879352569580078e-01) (51, 2.11890757083892822266e-01) (52, 2.51605033874511718750e+00) (53, 3.15309971570968627930e-01) (54, 1.85369968414306640625e+00) (55, 5.78319072723388671875e+00) (56, 8.95794332027435302734e-01) (57, -6.54685795307159423828e-01) (58, 1.04570738971233367920e-01) (59, 9.55618917942047119140e-02) (60, -5.38797557353973388672e-01) (61, 5.51848506927490234375e+00) (62, -5.05123519897460937500e+00) (63, -2.00995540618896484375e+00) (64, 1.37697207927703857422e+00) (65, 6.07418835163116455078e-01) (66, 4.07941007614135742188e+00) (67, -4.65682089328765869140e-01) (68, 1.13247261047363281250e+01) (69, -4.76839780807495117188e-01) (70, 4.41332548856735229492e-01) (71, 1.29999673366546630860e+00) (72, 3.91075700521469116210e-01) (73, 2.72426009178161621094e-01) (74, 3.69239068031311035156e+00) (75, -3.34472022950649261474e-02) (76, 1.35327119827270507812e+01) (77, 1.20980732142925262452e-01) (78, 2.99179244041442871094e+00) (79, 6.51370227336883544922e-01) (19, 3.92115652561187744140e-01) (20, 8.37351441383361816406e-01) (21, -1.15328030660748481750e-02) (22, -9.41254556179046630860e-01) (23, 3.39917850494384765625e+00) (24, -5.95814704895019531250e-01) (25, 2.15484350919723510742e-01) (26, 5.07032275199890136718e-01) (27, 1.15002036094665527344e+00) (28, 1.26907324790954589844e+00) (29, -9.79548692703247070312e-02) (30, 6.61219716072082519532e-01) (31, 8.63594818115234375000e+00) (32, -1.62236213684082031250e-01) (33, 4.37495827674865722656e-01) (34, -2.65302944183349609375e+00) (35, 4.97568488121032714844e-01) (36, 1.32195968627929687500e+01) (37, 9.70663428306579589844e-01) (38, -1.36741566658020019532e+00) (39, -2.59757906198501586914e-01) (40, -3.08997742831707000732e-02) (41, 2.26666942238807678222e-01) (42, -9.46812629699707031250e-01) (43, 3.11222791671752929688e-01) (44, 1.00127649307250976562e+00) (45, 1.25464284420013427734e+00) (46, 1.81768238544464111328e+00) (47, 3.19154202938079833984e-01) (48, -6.43718481063842773438e-01) (49, 8.63209962844848632812e-01) (50, 2.31397700309753417968e+00) (51, 1.35573720932006835938e+01) (52, -4.05821847915649414062e+00) (53, 3.07555913925170898438e-01) (54, 7.55633234977722167968e-01) (55, -3.14436149597167968750e+00) (56, -2.08957061171531677246e-01) (57, 3.71823757886886596680e-01) (58, 1.81827619671821594238e-01) (59, -5.65614461898803710938e-01) (60, 5.57635307312011718750e+00) (61, 3.33531886339187622070e-01) (62, -3.37820529937744140625e-01) (63, -7.83615469932556152344e-01) (64, -1.47053921222686767578e+00) (65, 1.35980820655822753906e+00) (66, 5.85344970226287841796e-01) (67, 2.79105216264724731446e-01) (68, 1.96987991333007812500e+01) (69, 3.08837592601776123046e-01) (70, 7.34338521957397460938e-01) (71, 6.67528733611106872558e-02) (72, -2.90242362022399902344e+00) (73, 8.04012954235076904296e-01) (74, 1.75194406509399414062e+00) (75, 5.12692511081695556640e-01) (76, 2.54342198371887207032e+00) (77, 2.94343256950378417968e+00) (78, -1.01647319793701171875e+01) (79, 1.17906458675861358642e-01) (19, 7.37576305866241455078e-01) (20, -3.95738750696182250976e-01) (21, -4.95725929737091064454e-01) (22, 1.36133575439453125000e+00) (23, 6.64544522762298583984e-01) (24, -1.44533384591341018676e-02) (25, 6.10057776793837547302e-03) (26, 7.62181341648101806640e-01) (27, -2.37079644203186035156e+00) (28, 5.25158882141113281250e-01) (29, -1.91281661391258239746e-02) (30, 1.47888228297233581542e-01) (31, 3.31356346607208251954e-01) (32, 4.74926322698593139648e-01) (33, 6.11371695995330810546e-01) (34, 7.05083370208740234375e-01) (35, 5.33890664577484130860e-01) (36, 3.14723730087280273438e+00) (37, -9.48839843273162841796e-01) (38, 5.35474300384521484375e-01) (39, 5.16403734683990478516e-01) (40, 2.97326654195785522460e-01) (41, 1.23121120035648345948e-01) (42, -1.92676708102226257324e-01) (43, 8.42820346355438232422e-01) (44, 4.92375582456588745118e-01) (45, -1.18320500478148460388e-02) (46, -2.42973089218139648438e-01) (47, 3.62618803977966308594e-01) (48, 2.15253800153732299804e-01) (49, -2.50749349594116210938e-01) (50, -6.71201765537261962890e-01) (51, 1.63108646869659423828e+00) (52, 1.51360106468200683594e+00) (53, -1.44488373771309852600e-02) (54, 3.16598355770111083984e-01) (55, -1.16598165035247802734e+00) (56, -1.65177166461944580078e-01) (57, -3.41164954006671905518e-02) (58, -1.22777625918388366700e-01) (59, 3.86104971170425415040e-01) (60, -5.68360567092895507812e-01) (61, -8.88295650482177734375e-01) (62, 1.08235347270965576172e+00) (63, -1.79964387416839599610e+00) (64, -8.65494832396507263184e-02) (65, -2.29226112365722656250e-01) (66, 5.66931724548339843750e-01) (67, -7.44341909885406494140e-02) (68, 3.21121774613857269288e-02) (69, -1.64804697036743164062e-01) (70, -5.84104359149932861328e-01) (71, 2.02938508987426757812e+00) (72, -1.62559583783149719238e-01) (73, 5.85546016693115234375e-01) (74, -9.44894075393676757812e-01) (75, 3.90994518995285034180e-01) (76, 7.70994424819946289062e-01) (77, 7.60804831981658935546e-01) (78, 1.16115678101778030396e-02) (79, 5.74225962162017822266e-01) (19, -1.19066752493381500244e-01) (20, 2.64021575450897216796e-01) (21, -6.51090741157531738282e-01) (22, -1.52389430999755859375e+00) (23, 1.01952946186065673828e+00) (24, 4.63921844959259033204e-01) (25, 5.07442474365234375000e-01) (26, 8.18622335791587829590e-02) (27, -2.78993248939514160156e-01) (28, 4.83252257108688354492e-01) (29, -2.43092104792594909668e-02) (30, 6.13835573196411132812e-01) (31, 2.20926499366760253906e+00) (32, -1.86836972832679748536e-01) (33, 2.67762690782546997070e-02) (34, 1.52093338966369628906e+00) (35, 3.98127809166908264160e-02) (36, 1.84519779682159423828e+00) (37, -2.57376283407211303710e-01) (38, 6.10795378684997558594e-01) (39, -4.12514835596084594726e-01) (40, -4.13273870944976806640e-02) (41, 5.37209749221801757812e-01) (42, 1.68005734682083129882e-01) (43, 5.08171439170837402344e-01) (44, -1.58835679292678833008e-01) (45, 4.71615970134735107422e-01) (46, 2.22938612103462219238e-01) (47, 3.94882820546627044678e-02) (48, -5.30870437622070312500e-01) (49, 7.75130569934844970704e-01) (50, 8.99710655212402343750e-02) (51, 2.42331051826477050782e+00) (52, 2.79068922996520996094e+00) (53, 2.45739638805389404296e-01) (54, 4.36878316104412078858e-02) (55, 2.21540307998657226562e+00) (56, 3.59692692756652832032e-01) (57, 5.98359048366546630860e-01) (58, -1.94009110331535339356e-01) (59, 1.19224816560745239258e-01) (60, 4.73429203033447265625e-01) (61, -5.27290180325508117676e-02) (62, 2.56775045394897460938e+00) (63, 5.76972675323486328125e+00) (64, -2.16071307659149169922e-01) (65, 1.21706388890743255616e-01) (66, 8.44922736287117004394e-02) (67, 4.80198413133621215820e-01) (68, -5.87615430355072021484e-01) (69, 5.59603810310363769532e-01) (70, -4.60383027791976928710e-01) (71, -5.89106231927871704102e-02) (72, 6.91028416156768798828e-01) (73, 5.58933056890964508056e-02) (74, 2.90830373764038085938e-01) (75, 1.00069448351860046386e-01) (76, 5.25669336318969726562e-01) (77, 5.80738162994384765625e+00) (78, -5.27143590152263641358e-02) (79, 5.04629015922546386718e-01) (19, 8.45170021057128906250e-01) (20, 1.60678219795227050782e+00) (21, 5.90418457984924316406e-01) (22, -1.17488169670104980468e+00) (23, -2.61981248855590820312e+00) (24, -2.05628499388694763184e-01) (25, -5.81814348697662353516e-01) (26, 3.26260185241699218750e+00) (27, -1.64547860622406005860e-01) (28, 5.25849580764770507812e-01) (29, 2.50310134887695312500e+00) (30, 3.77771705389022827148e-02) (31, -6.81517243385314941406e-01) (32, 5.03133982419967651368e-02) (33, -1.15004932880401611328e+00) (34, 3.60603046417236328125e+00) (35, 2.61233031749725341796e-01) (36, -3.87646818161010742188e+00) (37, 6.32916629314422607422e-01) (38, -4.16313558816909790040e-01) (39, 1.04421198368072509766e+00) (40, 2.74691075086593627930e-01) (41, 1.22298777103424072266e-01) (42, -2.71629095077514648438e+00) (43, 5.72731792926788330078e-01) (44, 1.25814723968505859375e+00) (45, 1.75825679302215576172e+00) (46, 3.75375598669052124024e-01) (47, 6.76147267222404479980e-03) (48, -2.15811729431152343750e-01) (49, -1.16066887974739074708e-01) (50, -1.01079547405242919922e+00) (51, -1.64935719966888427734e+00) (52, 3.99955844879150390625e+00) (53, 5.20341515541076660156e-01) (54, 2.00875258445739746094e+00) (55, 1.62169933319091796875e+00) (56, 7.03644216060638427734e-01) (57, 5.85331559181213378906e-01) (58, 5.51703870296478271484e-01) (59, 8.44362437725067138672e-01) (60, 1.50299007073044776916e-02) (61, 3.95147114992141723632e-01) (62, -8.17808270454406738282e-01) (63, 1.40264492034912109375e+01) (64, 1.34788751602172851562e+00) (65, 3.51871311664581298828e-01) (66, 1.61391389369964599610e+00) (67, 3.45563381910324096680e-01) (68, -1.42982751131057739258e-01) (69, 3.72636355459690093994e-02) (70, 9.74444985389709472656e-01) (71, 3.47701501846313476562e+00) (72, -4.81027513742446899414e-01) (73, -7.01469182968139648438e-01) (74, -7.42849767208099365234e-01) (75, 2.06163257360458374024e-01) (76, 1.28513336181640625000e+00) (77, 8.50137233734130859375e-01) (78, 2.51612567901611328125e+00) (79, 2.79179871082305908204e-01) (19, 5.73038280010223388672e-01) (20, 1.12123571336269378662e-01) (21, -1.68373644351959228516e+00) (22, -2.26520204544067382812e+00) (23, 3.27105116844177246094e+00) (24, 1.55246949195861816406e+00) (25, 9.57533791661262512208e-02) (26, -1.31413590908050537110e+00) (27, -2.68354445695877075196e-01) (28, 8.27335238456726074218e-01) (29, 1.01987862586975097656e+00) (30, 5.07033586502075195312e-01) (31, 4.85295981168746948242e-01) (32, -7.69031196832656860352e-02) (33, -5.76889738440513610840e-02) (34, -8.66187930107116699218e-01) (35, 7.13473930954933166504e-02) (36, -2.22358059883117675782e+00) (37, 7.05318331718444824218e-01) (38, 2.59372949600219726562e-01) (39, -4.75818306207656860352e-01) (40, 6.13781452178955078125e-01) (41, 5.73604464530944824218e-01) (42, 5.86544573307037353516e-01) (43, 5.63441395759582519532e-01) (44, -1.20246045291423797608e-01) (45, 1.02466039359569549560e-01) (46, 6.24061405658721923828e-01) (47, -5.11723875999450683594e-01) (48, -1.96449741721153259278e-01) (49, 4.72912102937698364258e-01) (50, 1.15175855159759521484e+00) (51, -1.83307155966758728028e-02) (52, 6.39839917421340942382e-02) (53, 2.79037803411483764648e-01) (54, 6.10004186630249023438e-01) (55, -7.02692568302154541016e-01) (56, 1.75904825329780578614e-01) (57, 5.09937763214111328125e-01) (58, -1.87224254012107849122e-01) (59, 1.21066284179687500000e+00) (60, 6.26091301441192626954e-01) (61, -7.58626699447631835938e-01) (62, 1.21055148541927337646e-01) (63, 5.65210342407226562500e-01) (64, -1.34085670113563537598e-01) (65, -4.31137233972549438476e-01) (66, -2.79922556877136230468e+00) (67, 6.53613567352294921875e-01) (68, 1.48869872093200683594e-01) (69, -2.01074615120887756348e-01) (70, -4.46196228265762329102e-01) (71, -9.51337814331054687500e-01) (72, 6.73179209232330322266e-01) (73, 3.88263487815856933594e+00) (74, 1.38307523727416992188e+00) (75, 3.81223373115062713624e-02) (76, -7.04121291637420654296e-01) (77, -1.36976748704910278320e-01) (78, -1.87419522553682327270e-02) (79, 5.95911622047424316406e-01) (19, -1.06332458555698394776e-01) (20, -6.08110010623931884766e-01) (21, 9.08506885170936584472e-02) (22, 4.28800672292709350586e-01) (23, 4.84271407127380371094e-01) (24, -2.73096233606338500976e-01) (25, 6.55527651309967041016e-01) (26, 8.16369414329528808594e-01) (27, 3.53557497262954711914e-01) (28, -5.41269332170486450196e-02) (29, -1.76695883274078369140e-01) (30, 3.84217619895935058594e-01) (31, -7.05039644241333007812e+00) (32, 6.33665084838867187500e-01) (33, 1.11656546592712402344e-01) (34, 2.33327686786651611328e-01) (35, -4.56196993589401245118e-01) (36, 1.67948171496391296386e-01) (37, -8.94637227058410644532e-01) (38, 5.03344297409057617188e-01) (39, 9.18415486812591552734e-02) (40, 2.60142266750335693360e-01) (41, 4.72855210304260253906e-01) (42, 2.71185368299484252930e-01) (43, 6.00721180438995361328e-01) (44, 2.48522013425827026368e-02) (45, 6.24085426330566406250e-01) (46, 1.04881660081446170806e-03) (47, 6.49545252323150634766e-01) (48, -2.88659542798995971680e-01) (49, 3.34975689649581909180e-01) (50, -1.01058974862098693848e-01) (51, -4.80564907193183898926e-02) (52, 4.65628802776336669922e-01) (53, 5.50779461860656738282e-01) (54, -1.76734894514083862304e-01) (55, 1.75392702221870422364e-01) (56, -3.88609498739242553710e-01) (57, 7.32034742832183837890e-01) (58, 1.58222094178199768066e-01) (59, -1.40167504549026489258e-01) (60, 4.21341210603713989258e-01) (61, 6.25597536563873291016e-02) (62, -8.84645581245422363282e-02) (63, -2.59120154380798339844e+00) (64, -2.98332899808883666992e-01) (65, 3.43944653868675231934e-02) (66, 7.95928478240966796875e-01) (67, 7.17191100120544433594e-01) (68, 3.58226299285888671875e-02) (69, 7.78935134410858154296e-01) (70, -7.90656328201293945312e-01) (71, -3.46035361289978027344e-01) (72, 4.20215874910354614258e-01) (73, -5.78947439789772033692e-02) (74, 6.52391612529754638672e-01) (75, 5.23846745491027832032e-01) (76, -6.91758930683135986328e-01) (77, 4.39938694238662719726e-01) (78, 1.06511247158050537110e+00) (79, 3.45888048410415649414e-01) (19, -2.37228304147720336914e-01) (20, -2.09874972701072692872e-01) (21, 7.89222538471221923828e-01) (22, 7.38632798194885253906e-01) (23, 3.88364791870117187500e-01) (24, 5.04948556423187255860e-01) (25, -1.31962192058563232422e+00) (26, 3.88914383947849273682e-02) (27, 4.24474179744720458984e-01) (28, 1.14395841956138610840e-01) (29, 2.96945869922637939454e-01) (30, -4.04032140970230102540e-01) (31, -1.31825518608093261718e+00) (32, 5.83246469497680664062e-01) (33, -2.91962534189224243164e-01) (34, 2.17536187171936035156e+00) (35, -2.72306621074676513672e-01) (36, -7.47214853763580322266e-01) (37, 2.15055227279663085938e-01) (38, -1.32550716400146484375e-01) (39, 8.60342681407928466796e-01) (40, -1.68541789054870605468e-01) (41, -1.99964404106140136718e-01) (42, -4.52334225177764892578e-01) (43, -5.72699159383773803710e-02) (44, -3.48030328750610351562e-01) (45, -2.44740679860115051270e-01) (46, 8.97696614265441894532e-01) (47, 2.23640352487564086914e-01) (48, -7.27970123291015625000e-01) (49, -1.90474584698677062988e-01) (50, 1.26943904906511306762e-02) (51, -1.05415272712707519532e+00) (52, 1.93724906444549560546e+00) (53, 9.94903892278671264648e-02) (54, 2.52965480089187622070e-01) (55, -1.06637048721313476562e+00) (56, 2.85467773675918579102e-01) (57, -6.26048222184181213378e-02) (58, 7.57864177227020263672e-01) (59, 2.14003965258598327636e-01) (60, -1.16889178752899169922e-01) (61, -1.42495155334472656250e-01) (62, 1.17196881771087646484e+00) (63, -7.39554226398468017578e-01) (64, 3.45635741949081420898e-01) (65, 3.08726340532302856446e-01) (66, -1.30706518888473510742e-01) (67, 6.77133575081825256348e-02) (68, 2.65904456377029418946e-01) (69, 7.56002306938171386718e-01) (70, 8.29074323177337646484e-01) (71, 2.63923019170761108398e-01) (72, -3.21565717458724975586e-01) (73, -8.02321881055831909180e-02) (74, -3.70493233203887939454e-02) (75, 2.42388159036636352540e-01) (76, -3.42023611068725585938e-01) (77, 1.21002173423767089844e+00) (78, -6.15105915069580078125e+00) (79, -2.40472272038459777832e-01) (19, -5.66816687583923339844e-01) (20, 9.00107026100158691406e-01) (21, -8.53170394897460937500e-01) (22, -1.84634375572204589844e+00) (23, 4.98070669174194335938e+00) (24, -5.27125656604766845704e-01) (25, 1.39412736892700195312e+00) (26, 3.61339867115020751954e-01) (27, 6.47940337657928466796e-01) (28, 1.80051326751708984375e+00) (29, 1.28935730457305908204e+00) (30, -1.58894705772399902344e+00) (31, 7.25042700767517089844e-01) (32, -1.58699020743370056152e-01) (33, -3.56458991765975952148e-01) (34, -2.44539308547973632812e+00) (35, -5.79832732677459716796e-01) (36, -2.71366858482360839844e+00) (37, -2.27719858288764953614e-01) (38, 1.77784848213195800782e+00) (39, 1.10791519284248352050e-01) (40, 5.81825077533721923828e-01) (41, 1.02109849452972412110e+00) (42, -2.44196939468383789062e+00) (43, 5.57009637355804443360e-01) (44, 4.69840139150619506836e-01) (45, -5.54585635662078857422e-01) (46, -1.49050021171569824218e+00) (47, 8.11024904251098632812e-01) (48, 7.31804296374320983886e-02) (49, 5.65649807453155517578e-01) (50, -1.19556248188018798828e+00) (51, -3.28595675528049468994e-02) (52, -1.71059572696685791016e+00) (53, 6.04888617992401123046e-01) (54, -3.38100820779800415040e-01) (55, 3.33959293365478515625e+00) (56, 1.47615206241607666016e+00) (57, 6.75590813159942626954e-01) (58, 7.12570771574974060058e-02) (59, -2.33510822057723999024e-01) (60, 3.76894503831863403320e-01) (61, 2.74916601181030273438e+00) (62, -5.77127754688262939454e-01) (63, 2.35431408882141113282e+00) (64, 1.72373569011688232422e+00) (65, 8.27238261699676513672e-01) (66, 5.82191610336303710938e+00) (67, 6.36547088623046875000e-01) (68, -5.43660759925842285156e-01) (69, 6.51859223842620849610e-01) (70, 9.39349174499511718750e-01) (71, -1.62520658969879150390e+00) (72, 2.60914564132690429688e-01) (73, -3.61336022615432739258e-01) (74, -1.22319066524505615234e+00) (75, 8.16318273544311523438e-01) (76, -1.62688612937927246094e+00) (77, -5.46474516391754150390e-01) (78, 1.49510936737060546875e+01) (79, 5.86113691329956054688e-01) (19, -2.16968148946762084960e-01) (20, 4.15284603834152221680e-01) (21, 1.06280255317687988282e+00) (22, -1.07913362979888916016e+00) (23, -6.52392767369747161866e-03) (24, -4.64709192514419555664e-01) (25, 1.72325122356414794922e+00) (26, 1.88768029212951660156e+00) (27, 5.72739355266094207764e-02) (28, 1.04270696640014648438e-01) (29, 1.41271519660949707032e+00) (30, 1.49082720279693603516e-01) (31, 5.22829580307006835938e+00) (32, 5.22981762886047363282e-01) (33, 2.94048643112182617188e+00) (34, -2.33902168273925781250e+00) (35, 3.26180785894393920898e-01) (36, -7.46489226818084716796e-01) (37, 7.21493005752563476562e-01) (38, -3.75469636917114257812e+00) (39, 1.31159985065460205078e+00) (40, 7.44293630123138427734e-03) (41, -1.02009348571300506592e-01) (42, -2.20646224915981292724e-02) (43, -6.20413348078727722168e-02) (44, 7.20495283603668212890e-01) (45, 3.78928899765014648438e+00) (46, -2.19482779502868652344e-01) (47, 3.80276560783386230468e-01) (48, -9.76818084716796875000e-01) (49, 2.40553915500640869140e-01) (50, 3.31467688083648681640e-01) (51, 8.88030350208282470704e-01) (52, -8.31818580627441406250e+00) (53, 8.60017016530036926270e-02) (54, 4.84882146120071411132e-01) (55, 6.70789539813995361328e-01) (56, 3.92657160758972167968e-01) (57, -1.37595728039741516114e-01) (58, 4.49397295713424682618e-01) (59, 5.71555376052856445312e-01) (60, -7.83920213580131530762e-02) (61, 2.20978546142578125000e+00) (62, -7.69513010978698730468e-01) (63, -7.07989633083343505860e-01) (64, 4.36250299215316772460e-01) (65, 8.27005282044410705566e-02) (66, -6.13846480846405029296e-01) (67, -2.74229764938354492188e-01) (68, 4.94151830673217773438e-01) (69, -5.65185621380805969238e-02) (70, 7.43970215320587158204e-01) (71, -1.10492718219757080078e+00) (72, 1.43004167079925537110e+00) (73, 6.02858901023864746094e-01) (74, 2.66153955459594726562e+00) (75, 2.66700714826583862304e-01) (76, 6.26158654689788818360e-01) (77, -2.03229475021362304688e+00) (78, 4.70757627487182617188e+00) (79, -7.88964107632637023926e-02) (19, -1.10729408264160156250e+00) (20, -2.77748942375183105468e-01) (21, 1.86456608772277832032e+00) (22, -1.32386529445648193360e+00) (23, -7.23399519920349121094e-01) (24, 5.80006659030914306640e-01) (25, 3.66344638168811798096e-02) (26, -7.72710502147674560546e-01) (27, -1.05299346148967742920e-01) (28, 1.71244573593139648438e+00) (29, 2.42660808563232421875e+00) (30, 3.37297141551971435546e-01) (31, -6.30752980709075927734e-01) (32, 1.08460113406181335450e-01) (33, 4.70702797174453735352e-01) (34, 3.51973533630371093750e+00) (35, -1.12619757652282714844e+00) (36, -6.13896226882934570312e+00) (37, -5.54725885391235351562e-01) (38, -2.80417656898498535156e+00) (39, 1.19677424430847167968e+00) (40, 4.77828592061996459960e-01) (41, -4.98211026191711425782e-01) (42, 5.23738145828247070312e-01) (43, -1.35129213333129882812e-01) (44, 8.49370718002319335938e-01) (45, -3.92179876565933227540e-01) (46, 9.36288118362426757812e-01) (47, 1.91347166895866394042e-01) (48, 5.94884812831878662110e-01) (49, -5.35730659961700439454e-01) (50, -1.30855143070220947266e+00) (51, 3.46820741891860961914e-01) (52, 3.65408825874328613282e+00) (53, 1.72318577766418457032e-01) (54, 2.80273437500000000000e-01) (55, 3.06920146942138671875e+00) (56, 1.82880210876464843750e+00) (57, 5.60658052563667297364e-04) (58, 6.68251991271972656250e-01) (59, 1.46132087707519531250e+00) (60, 2.40063011646270751954e-01) (61, 4.54157876968383789062e+00) (62, 5.65408945083618164062e+00) (63, 1.99576263427734375000e+01) (64, -1.48148548603057861328e+00) (65, 3.56399118900299072266e-01) (66, 2.47825011610984802246e-01) (67, -1.09148800373077392578e-01) (68, 3.59880506992340087890e-01) (69, 2.25526422262191772460e-01) (70, 2.21969580650329589844e+00) (71, -3.73245859146118164062e+00) (72, 7.04076170921325683594e-01) (73, 5.80007970333099365234e-01) (74, 7.97742509841918945312e+00) (75, 1.95716425776481628418e-01) (76, -1.94018614292144775390e+00) (77, 3.07278156280517578125e-01) (78, 5.13994073867797851562e+00) (79, -2.67296344041824340820e-01) (19, -1.41589447855949401856e-01) (20, -1.42349768429994583130e-02) (21, -1.92476585507392883300e-01) (22, 2.60712432861328125000e+00) (23, -2.49135553836822509766e-01) (24, -1.60840749740600585938e-01) (25, 5.30016720294952392578e-01) (26, 7.02549397945404052734e-01) (27, 5.13780415058135986328e-01) (28, -8.67765620350837707520e-02) (29, 2.40314081311225891114e-01) (30, -8.14934968948364257812e-01) (31, -4.72441613674163818360e-01) (32, 7.78690934181213378906e-01) (33, -7.58615636825561523438e+00) (34, 2.38208785653114318848e-01) (35, 1.18133880198001861572e-01) (36, 8.05310785770416259766e-01) (37, 6.44366815686225891114e-02) (38, 2.14308828115463256836e-01) (39, 1.81401506066322326660e-01) (40, 5.35114109516143798828e-01) (41, 3.97039949893951416016e-01) (42, 1.51923552155494689942e-01) (43, 5.75804293155670166016e-01) (44, -3.22286874055862426758e-01) (45, 9.59133267402648925782e-01) (46, -4.25872892141342163086e-01) (47, 7.14110016822814941406e-01) (48, 2.09579542279243469238e-01) (49, 6.31543457508087158204e-01) (50, -1.28398641943931579590e-01) (51, 1.69527873396873474122e-01) (52, -2.71309733390808105468e-01) (53, 6.72774255275726318360e-01) (54, 5.49199938774108886718e-01) (55, 1.94049358367919921875e+00) (56, 4.91976272314786911010e-04) (57, 7.09967911243438720704e-01) (58, 6.57336860895156860352e-02) (59, 9.02835249900817871094e-01) (60, 1.82826220989227294922e-01) (61, -7.31496095657348632812e-01) (62, -3.18682718276977539062e+00) (63, 6.28415679931640625000e+00) (64, -3.55505168437957763672e-01) (65, 6.28623604774475097656e-01) (66, 6.19184911251068115234e-01) (67, 8.23668599128723144532e-01) (68, -2.57231533527374267578e-01) (69, 6.94923877716064453125e-01) (70, -3.13829854130744934082e-02) (71, -1.31571218371391296386e-01) (72, 3.67297887802124023438e-01) (73, 1.79472577571868896484e+00) (74, 9.05094385147094726562e-01) (75, 8.35980832576751708984e-01) (76, -3.27687114477157592774e-01) (77, -3.05182129144668579102e-01) (78, -5.60510873794555664062e-01) (79, 4.09613728523254394532e-01) (19, 1.70182025432586669922e+00) (20, 2.44814485311508178710e-01) (21, 2.81191968917846679688e+00) (22, 3.22130942344665527344e+00) (23, -5.59038341045379638672e-01) (24, 2.25030079483985900878e-01) (25, 1.52729654312133789062e+00) (26, -4.27867621183395385742e-01) (27, -2.24877268075942993164e-01) (28, 3.76172035932540893554e-01) (29, 7.28402584791183471680e-02) (30, 6.29983544349670410156e-01) (31, 1.12383984029293060302e-01) (32, -3.12293618917465209960e-01) (33, 1.65759027004241943360e-02) (34, -1.28706717491149902344e+00) (35, -5.44288098812103271484e-01) (36, -5.62160539627075195312e+00) (37, -9.00790840387344360352e-02) (38, 6.09014570713043212890e-01) (39, -2.78409153223037719726e-01) (40, 7.08787739276885986328e-01) (41, 7.56992280483245849610e-01) (42, 6.78111463785171508790e-02) (43, 4.44683313369750976562e-01) (44, -2.18712016940116882324e-01) (45, 4.75064039230346679688e-01) (46, -2.51127451658248901368e-01) (47, 1.19960442185401916504e-01) (48, -1.08792912960052490234e+00) (49, 7.84091830253601074218e-01) (50, -5.55336624383926391602e-02) (51, 1.25171542167663574218e+00) (52, 1.89735436439514160156e+00) (53, 2.46588394045829772950e-01) (54, 4.72488217055797576904e-02) (55, 2.44776940345764160156e+00) (56, 8.31095397472381591796e-01) (57, 4.58556026220321655274e-01) (58, -2.73224979639053344726e-01) (59, 5.93571782112121582032e-01) (60, 5.06102681159973144532e-01) (61, 3.34225177764892578125e-01) (62, 1.12464702129364013672e+00) (63, 6.41447305679321289062e+00) (64, -1.31088241934776306152e-01) (65, 8.35271477699279785156e-02) (66, -1.37667953968048095704e+00) (67, 4.79497551918029785156e-01) (68, 9.91378188133239746094e-01) (69, 6.03463530540466308594e-01) (70, -2.74907410144805908204e-01) (71, -6.70552492141723632812e-01) (72, 5.26268661022186279296e-01) (73, 1.21156322956085205078e+00) (74, 4.16301870346069335938e+00) (75, 1.07404820621013641358e-01) (76, 5.10329753160476684570e-03) (77, 1.52546417713165283204e+00) (78, 1.49296200275421142578e+00) (79, 5.10173678398132324218e-01) (19, 2.74394249916076660156e+00) (20, 1.18644213676452636718e+00) (21, 9.01468917727470397950e-02) (22, 4.81688737869262695312e+00) (23, -7.47753906250000000000e+00) (24, -4.96703505516052246094e-01) (25, 2.29056745767593383790e-01) (26, -3.22861361503601074218e+00) (27, 9.30539131164550781250e+00) (28, -3.42203426361083984375e+00) (29, -8.86613070964813232422e-01) (30, -2.42396980524063110352e-01) (31, -2.63108348846435546875e+01) (32, -4.01898431777954101562e+00) (33, 1.83302187919616699218e+00) (34, -2.41558456420898437500e+00) (35, 2.35463142395019531250e+00) (36, 2.21707363128662109375e+01) (37, -5.32078802585601806640e-01) (38, 2.90693044662475585938e+00) (39, 3.12409281730651855468e-01) (40, -1.42934870719909667968e+00) (41, 2.38739132881164550782e-01) (42, -3.05384683609008789062e+00) (43, -2.71759063005447387696e-01) (44, 9.54565584659576416016e-01) (45, 6.08027756214141845704e-01) (46, -6.64038944244384765625e+00) (47, 1.96556866168975830078e-01) (48, 1.17428541183471679688e+00) (49, -1.42733609676361083984e+00) (50, -2.40143370628356933594e+00) (51, -2.31103986501693725586e-01) (52, -1.00775842666625976562e+01) (53, 3.84168475866317749024e-01) (54, 5.45408546924591064454e-01) (55, 3.97849464416503906250e+00) (56, 1.42828238010406494140e+00) (57, -4.34790700674057006836e-01) (58, 3.30568999052047729492e-01) (59, 6.47469520568847656250e+00) (60, 7.71877586841583251954e-01) (61, 4.84404897689819335938e+00) (62, 7.97431993484497070312e+00) (63, 1.42336273193359375000e+01) (64, 8.30777406692504882812e-01) (65, 